{"learner":{"attributes":{"scikit_learn":"{\"_estimator_type\": \"classifier\"}"},"feature_names":["slope_angle","rainfall_last_24h","displacement_rate","pore_pressure","image_crack_score"],"feature_types":["float","float","float","float","float"],"gradient_booster":{"model":{"gbtree_model_param":{"num_parallel_tree":"1","num_trees":"100"},"iteration_indptr":[0,1,2,3,4,5,6,7,8,9,10,11,12,13,14,15,16,17,18,19,20,21,22,23,24,25,26,27,28,29,30,31,32,33,34,35,36,37,38,39,40,41,42,43,44,45,46,47,48,49,50,51,52,53,54,55,56,57,58,59,60,61,62,63,64,65,66,67,68,69,70,71,72,73,74,75,76,77,78,79,80,81,82,83,84,85,86,87,88,89,90,91,92,93,94,95,96,97,98,99,100],"tree_info":[0,0,0,0,0,0,0,0,0,0,0,0,0,0,0,0,0,0,0,0,0,0,0,0,0,0,0,0,0,0,0,0,0,0,0,0,0,0,0,0,0,0,0,0,0,0,0,0,0,0,0,0,0,0,0,0,0,0,0,0,0,0,0,0,0,0,0,0,0,0,0,0,0,0,0,0,0,0,0,0,0,0,0,0,0,0,0,0,0,0,0,0,0,0,0,0,0,0,0,0],"trees":[{"base_weights":[6.2371874E-1,6.5454364E-2,8.333297E-1,-5.7817554E-1,4.5457152E-1,5.714813E-1,1.0129303E0,-1.1804727E0,-3.8610283E-1,2.347572E-1,5.9389734E-1,2.955502E-1,7.699374E-1,8.491194E-1,1.0985166E0,-2.1209588E0,-9.073179E-1,-7.8288287E-1,-1.5981573E-1,3.8087595E-2,4.3476042E-1,4.7347653E-1,7.492902E-1,1.1267178E-1,4.709174E-1,6.32284E-1,8.868767E-1,7.1519697E-1,9.5234555E-1,1.0236796E0,1.1510051E0,-2.9325392E0,-1.8933921E0,-1.2304043E0,-5.854307E-1,-1.0687865E0,-5.513873E-1,-3.2143232E-1,9.988496E-2,1.0033007E-1,-1.4745152E-1,3.2935584E-1,5.037772E-1,3.9912692E-1,6.273126E-1,5.7441497E-1,7.948065E-1,-9.029171E-2,2.3518765E-1,2.8530434E-1,5.9439224E-1,4.7654432E-1,7.5592494E-1,7.669907E-1,9.4143295E-1,6.082391E-1,7.570293E-1,8.630276E-1,9.872876E-1,9.567499E-1,1.1070809E0,1.1043099E0,3.5111284E-1,-1.6625493E0,-7.508802E-1,-5.3148067E-1,-9.382047E-1,-3.992795E-1,-1.734587E-1,-1.6969751E-1,-1.1524332E0,-6.5069866E-1,-2.8461617E-1,-8.6030595E-2,-2.0377545E-1,-1.6080762E-1,-4.809271E-2,4.1104425E-2,-9.67598E-2,-4.3275535E-2,4.254175E-2,-6.73692E-2,1.2873095E-1,4.781166E-2,1.42123E-1,1.5482002E-1,-5.105074E-2,-1.0598067E-2,1.2567346E-1,-3.5858933E-2,1.9236037E-1,-1.1671179E-1,1.7825475E-1,2.1135795E-1,2.4793054E-1,-8.777544E-2,2.660173E-2,7.573174E-2,-2.622794E-1,6.8454393E-3,9.2521116E-2,1.6097996E-1,2.0460422E-1,7.880594E-2,1.5344279E-1,2.0017295E-1,2.4062577E-1,2.0615499E-1,2.4491401E-1,2.6673263E-1,2.99685E-1,1.429435E-1,2.002426E-1,2.1387376E-1,2.502957E-1,2.40109E-1,2.8340098E-1,2.8125906E-1,3.1012413E-1,2.6355103E-1,2.9445362E-1,3.2075992E-1,3.4550905E-1,3.0853233E-1,3.4317642E-1],"categories":[],"categories_nodes":[],"categories_segments":[],"categories_sizes":[],"default_left":[0,0,0,0,0,0,0,0,0,0,0,0,0,0,0,0,0,0,0,0,0,0,0,0,0,0,0,0,0,0,0,0,0,0,0,0,0,0,0,0,0,0,0,0,0,0,0,0,0,0,0,0,0,0,0,0,0,0,0,0,0,0,0,0,0,0,0,0,0,0,0,0,0,0,0,0,0,0,0,0,0,0,0,0,0,0,0,0,0,0,0,0,0,0,0,0,0,0,0,0,0,0,0,0,0,0,0,0,0,0,0,0,0,0,0,0,0,0,0,0,0,0,0,0,0],"id":0,"left_children":[1,3,5,7,9,11,13,15,17,19,21,23,25,27,29,31,33,35,37,39,41,43,45,47,49,51,53,55,57,59,61,63,65,67,69,71,73,75,77,79,81,83,85,87,89,91,93,95,97,99,101,103,105,107,109,111,113,115,117,119,121,123,-1,-1,-1,-1,-1,-1,-1,-1,-1,-1,-1,-1,-1,-1,-1,-1,-1,-1,-1,-1,-1,-1,-1,-1,-1,-1,-1,-1,-1,-1,-1,-1,-1,-1,-1,-1,-1,-1,-1,-1,-1,-1,-1,-1,-1,-1,-1,-1,-1,-1,-1,-1,-1,-1,-1,-1,-1,-1,-1,-1,-1,-1,-1],"loss_changes":[5.1851875E3,3.0299224E3,1.5144492E3,5.268739E2,2.3076868E2,7.1761914E2,2.6695312E2,2.810963E2,3.1032373E2,1.1510037E2,8.598584E1,1.7587589E2,1.2216797E2,9.002783E1,4.8106445E1,4.0104126E1,8.8246765E1,8.250647E1,9.2502365E1,1.7068323E1,1.0388977E1,2.9513367E1,1.5564453E1,6.682742E1,6.400244E1,6.714038E1,2.6223633E1,1.233667E1,1.0702881E1,2.786377E1,5.3710938E0,4.4772644E1,2.3899231E1,2.7163391E1,2.5538391E1,7.2005615E1,2.334871E1,4.6877182E1,1.3311294E1,1.1243498E1,1.6606426E1,1.4086086E1,7.334259E0,1.5118042E1,8.853363E0,8.21669E0,3.9708252E0,3.6664017E1,3.2291336E1,6.7866974E0,8.144043E0,1.1475037E1,7.4571533E0,4.5389404E0,7.619629E0,5.997925E0,6.4018555E0,4.611023E0,5.166992E0,4.7216797E0,2.6567383E0,5.36792E0,0E0,0E0,0E0,0E0,0E0,0E0,0E0,0E0,0E0,0E0,0E0,0E0,0E0,0E0,0E0,0E0,0E0,0E0,0E0,0E0,0E0,0E0,0E0,0E0,0E0,0E0,0E0,0E0,0E0,0E0,0E0,0E0,0E0,0E0,0E0,0E0,0E0,0E0,0E0,0E0,0E0,0E0,0E0,0E0,0E0,0E0,0E0,0E0,0E0,0E0,0E0,0E0,0E0,0E0,0E0,0E0,0E0,0E0,0E0,0E0,0E0,0E0,0E0],"parents":[2147483647,0,0,1,1,2,2,3,3,4,4,5,5,6,6,7,7,8,8,9,9,10,10,11,11,12,12,13,13,14,14,15,15,16,16,17,17,18,18,19,19,20,20,21,21,22,22,23,23,24,24,25,25,26,26,27,27,28,28,29,29,30,30,31,31,32,32,33,33,34,34,35,35,36,36,37,37,38,38,39,39,40,40,41,41,42,42,43,43,44,44,45,45,46,46,47,47,48,48,49,49,50,50,51,51,52,52,53,53,54,54,55,55,56,56,57,57,58,58,59,59,60,60,61,61],"right_children":[2,4,6,8,10,12,14,16,18,20,22,24,26,28,30,32,34,36,38,40,42,44,46,48,50,52,54,56,58,60,62,64,66,68,70,72,74,76,78,80,82,84,86,88,90,92,94,96,98,100,102,104,106,108,110,112,114,116,118,120,122,124,-1,-1,-1,-1,-1,-1,-1,-1,-1,-1,-1,-1,-1,-1,-1,-1,-1,-1,-1,-1,-1,-1,-1,-1,-1,-1,-1,-1,-1,-1,-1,-1,-1,-1,-1,-1,-1,-1,-1,-1,-1,-1,-1,-1,-1,-1,-1,-1,-1,-1,-1,-1,-1,-1,-1,-1,-1,-1,-1,-1,-1,-1,-1],"split_conditions":[7.146557E1,4.7840613E-1,4.745002E-1,2.0408228E1,6.983668E-1,1.330737E2,1.2044996E2,1.3803983E-1,2.0014477E-1,3.9238277E1,4.3184715E1,2.5121722E-1,2.3532486E-1,7.256319E-1,7.023858E-1,3.094121E-2,3.2207456E-1,4.5619003E1,5.3329052E1,4.6784874E1,5.2551773E1,9.105514E-1,7.6898605E-1,9.626686E1,9.851381E1,1.6491994E2,1.5639734E2,5.517689E-1,8.620348E1,1.673185E2,1.4462471E2,5.7041927E1,4.508621E0,1.8171574E1,5.9603104E1,2.3747005E-2,8.356136E1,3.3036596E-1,4.5467925E0,4.7794403E1,2.77422E2,3.553207E1,2.939433E2,2.4026887E0,7.9653865E-1,7.090019E0,5.106507E1,1.2559032E-1,1.3224945E2,2.695794E1,1.2044996E2,3.4752138E-2,8.62312E-2,3.342994E-1,1.8043983E2,8.775123E1,1.0324705E2,8.9085907E-1,8.677428E-1,1.330737E2,1.8523323E2,8.1300884E-1,3.5111284E-1,-1.6625493E0,-7.508802E-1,-5.3148067E-1,-9.382047E-1,-3.992795E-1,-1.734587E-1,-1.6969751E-1,-1.1524332E0,-6.5069866E-1,-2.8461617E-1,-8.6030595E-2,-2.0377545E-1,-1.6080762E-1,-4.809271E-2,4.1104425E-2,-9.67598E-2,-4.3275535E-2,4.254175E-2,-6.73692E-2,1.2873095E-1,4.781166E-2,1.42123E-1,1.5482002E-1,-5.105074E-2,-1.0598067E-2,1.2567346E-1,-3.5858933E-2,1.9236037E-1,-1.1671179E-1,1.7825475E-1,2.1135795E-1,2.4793054E-1,-8.777544E-2,2.660173E-2,7.573174E-2,-2.622794E-1,6.8454393E-3,9.2521116E-2,1.6097996E-1,2.0460422E-1,7.880594E-2,1.5344279E-1,2.0017295E-1,2.4062577E-1,2.0615499E-1,2.4491401E-1,2.6673263E-1,2.99685E-1,1.429435E-1,2.002426E-1,2.1387376E-1,2.502957E-1,2.40109E-1,2.8340098E-1,2.8125906E-1,3.1012413E-1,2.6355103E-1,2.9445362E-1,3.2075992E-1,3.4550905E-1,3.0853233E-1,3.4317642E-1],"split_indices":[1,4,4,1,4,1,1,4,4,1,1,4,4,4,4,4,4,1,1,0,1,4,4,1,1,1,1,4,1,1,1,3,2,1,0,4,3,4,2,3,3,0,3,1,1,3,1,4,1,3,1,4,4,4,1,1,1,4,4,1,1,4,0,0,0,0,0,0,0,0,0,0,0,0,0,0,0,0,0,0,0,0,0,0,0,0,0,0,0,0,0,0,0,0,0,0,0,0,0,0,0,0,0,0,0,0,0,0,0,0,0,0,0,0,0,0,0,0,0,0,0,0,0,0,0],"split_type":[0,0,0,0,0,0,0,0,0,0,0,0,0,0,0,0,0,0,0,0,0,0,0,0,0,0,0,0,0,0,0,0,0,0,0,0,0,0,0,0,0,0,0,0,0,0,0,0,0,0,0,0,0,0,0,0,0,0,0,0,0,0,0,0,0,0,0,0,0,0,0,0,0,0,0,0,0,0,0,0,0,0,0,0,0,0,0,0,0,0,0,0,0,0,0,0,0,0,0,0,0,0,0,0,0,0,0,0,0,0,0,0,0,0,0,0,0,0,0,0,0,0,0,0,0],"sum_hessian":[4.431036E4,1.2095988E4,3.2214371E4,4.557328E3,7.5386597E3,1.3107907E4,1.9106465E4,1.1006837E3,3.4566445E3,2.9256106E3,4.6130493E3,5.484629E3,7.623278E3,6.560562E3,1.2545902E4,2.4620898E2,8.5447473E2,1.2544995E3,2.202145E3,1.4756989E3,1.4499117E3,2.6012627E3,2.0117865E3,2.6856216E3,2.7990073E3,3.504461E3,4.118817E3,2.8591343E3,3.701428E3,5.1803667E3,7.365536E3,5.1315136E1,1.9489384E2,4.2503445E2,4.294403E2,5.596719E2,6.9482764E2,1.3572594E3,8.4488556E2,1.1053488E3,3.7035013E2,5.7599945E2,8.739123E2,1.7561179E3,8.451447E2,4.182961E2,1.5934905E3,1.01101184E3,1.6746099E3,1.1194734E3,1.6795339E3,1.5530603E3,1.9514005E3,1.2928563E3,2.8259607E3,8.082134E2,2.050921E3,1.0480728E3,2.6533552E3,2.8809043E3,2.2994624E3,2.176617E3,5.188919E3,5.572098E0,4.574304E1,1.7960297E2,1.5290874E1,3.6736972E2,5.7664734E1,4.2801486E2,1.4254204E0,5.3388474E1,5.0628342E2,2.2741934E2,4.674083E2,5.8105316E2,7.762062E2,7.7724286E2,6.764268E1,1.5990625E2,9.454425E2,3.2719876E2,4.3151363E1,2.6551694E2,3.1048248E2,8.584918E2,1.5420457E1,7.645437E1,1.6796636E3,1.5290874E1,8.298538E2,8.034187E0,4.102619E2,4.1946234E2,1.1740281E3,4.7427625E2,5.367356E2,1.6497297E3,2.4880066E1,9.070857E1,1.0287648E3,1.01632477E3,6.632092E2,2.1925557E2,1.3338048E3,6.733168E2,1.2780837E3,4.999338E2,7.929225E2,1.4883981E3,1.3375626E3,2.5346567E2,5.547477E2,1.3121643E3,7.3875653E2,5.990653E2,4.4900742E2,1.2914309E3,1.3619244E3,7.013068E2,2.1795974E3,1.2570912E3,1.0423711E3,7.558616E2,1.4207554E3],"tree_param":{"num_deleted":"0","num_feature":"5","num_nodes":"125","size_leaf_vector":"1"}},{"base_weights":[5.216184E-1,1.2529401E-1,7.671416E-1,-2.6322705E-1,4.1976342E-1,4.7947124E-1,9.3598783E-1,-4.647878E-1,-3.3737034E-2,2.4430123E-1,5.725907E-1,2.6146808E-1,6.579059E-1,7.913307E-1,1.0256101E0,-6.2026465E-1,-2.4971992E-1,-2.9344222E-1,9.569673E-2,4.2249482E-2,3.7595093E-1,4.5112205E-1,7.2814584E-1,2.6362274E-2,3.313982E-1,5.511215E-1,7.7110296E-1,6.2157035E-1,9.0502673E-1,9.0162987E-1,1.0803529E0,-8.129291E-1,-5.130694E-1,-3.5748327E-1,-3.9638564E-2,-1.7867483E-1,-4.136901E-1,-1.6230833E-2,1.7605531E-1,-4.391292E-1,6.257843E-2,2.942788E-1,4.9155274E-1,2.87474E-1,4.9955565E-1,6.622372E-1,7.9055953E-1,-2.1524484E-1,1.13059126E-1,1.1443792E-1,3.8123903E-1,3.9820096E-1,6.271447E-1,7.091935E-1,8.62977E-1,5.242399E-1,6.7293537E-1,8.182288E-1,9.66693E-1,8.084218E-1,9.645341E-1,1.0183394E0,1.1084E0,-3.9090744E-1,-2.2178628E-1,-2.6474118E-1,-1.4466669E-1,-1.1975364E-1,3.908282E-2,1.1649576E-2,-1.0277962E-1,-3.001588E-1,-4.0555865E-2,9.47172E-3,-1.9386898E-1,-4.0891692E-2,4.2319257E-2,4.7366343E-2,1.19890615E-1,-3.525307E-1,-3.7354887E-2,1.34097E-1,1.0983453E-2,9.140734E-3,1.03024565E-1,1.0076806E-1,1.659368E-1,9.635086E-2,-5.4310936E-2,1.22928776E-1,1.6865717E-1,1.8574345E-1,2.3695418E-1,2.3863259E-1,-7.7570532E-3,-2.0109646E-1,4.408399E-3,1.00630604E-1,3.2266064E-3,-2.5706368E-2,5.99918E-2,8.632759E-2,1.4585502E-1,8.0858804E-2,1.4995086E-1,1.7312041E-1,2.2183351E-1,1.07732125E-1,2.1643198E-1,2.363495E-1,2.814203E-1,1.5985781E-1,-1.9897383E-2,2.1683294E-1,1.7898738E-1,2.216032E-1,2.6426384E-1,2.7593082E-1,3.1922075E-1,2.5263494E-1,1.9844946E-1,2.760568E-1,3.1093392E-1,2.840718E-1,3.254958E-1,3.2138574E-1,3.3622968E-1],"categories":[],"categories_nodes":[],"categories_segments":[],"categories_sizes":[],"default_left":[0,0,0,0,0,0,0,0,0,0,0,0,0,0,0,0,0,0,0,0,0,0,0,0,0,0,0,0,0,0,0,0,0,0,0,0,0,0,0,0,0,0,0,0,0,0,0,0,0,0,0,0,0,0,0,0,0,0,0,0,0,0,0,0,0,0,0,0,0,0,0,0,0,0,0,0,0,0,0,0,0,0,0,0,0,0,0,0,0,0,0,0,0,0,0,0,0,0,0,0,0,0,0,0,0,0,0,0,0,0,0,0,0,0,0,0,0,0,0,0,0,0,0,0,0,0,0],"id":1,"left_children":[1,3,5,7,9,11,13,15,17,19,21,23,25,27,29,31,33,35,37,39,41,43,45,47,49,51,53,55,57,59,61,63,65,67,69,71,73,75,77,79,81,83,85,87,89,91,93,95,97,99,101,103,105,107,109,111,113,115,117,119,121,123,125,-1,-1,-1,-1,-1,-1,-1,-1,-1,-1,-1,-1,-1,-1,-1,-1,-1,-1,-1,-1,-1,-1,-1,-1,-1,-1,-1,-1,-1,-1,-1,-1,-1,-1,-1,-1,-1,-1,-1,-1,-1,-1,-1,-1,-1,-1,-1,-1,-1,-1,-1,-1,-1,-1,-1,-1,-1,-1,-1,-1,-1,-1,-1,-1],"loss_changes":[3.784498E3,1.7023724E3,1.1660332E3,2.9674655E2,2.268341E2,3.4542383E2,1.9536914E2,1.1405554E2,1.0090706E2,1.0484418E2,8.513794E1,6.576282E1,5.862207E1,1.11250244E2,6.2416992E1,4.051172E1,3.2468742E1,1.3705109E1,1.8023956E1,1.5257686E1,2.2389862E1,2.0008545E1,7.628418E0,1.9257524E1,3.329724E1,2.901355E1,1.2861084E1,1.1279907E1,1.7767578E1,1.6029785E1,1.0131836E1,2.4543884E1,1.4114655E1,1.9336433E1,1.1605004E1,1.818655E1,5.04262E1,1.5851295E1,4.674526E0,1.4484367E1,1.489823E1,1.8151863E1,9.270035E0,9.261707E0,1.0795898E1,4.845093E0,4.057129E0,2.5418407E1,1.5384067E1,9.901085E0,2.4453003E1,1.083197E1,9.018555E0,5.8320923E0,4.6157837E0,4.149826E0,5.3482056E0,6.5594482E0,8.258423E0,5.1922607E0,4.488159E0,8.630127E0,8.4033203E-1,0E0,0E0,0E0,0E0,0E0,0E0,0E0,0E0,0E0,0E0,0E0,0E0,0E0,0E0,0E0,0E0,0E0,0E0,0E0,0E0,0E0,0E0,0E0,0E0,0E0,0E0,0E0,0E0,0E0,0E0,0E0,0E0,0E0,0E0,0E0,0E0,0E0,0E0,0E0,0E0,0E0,0E0,0E0,0E0,0E0,0E0,0E0,0E0,0E0,0E0,0E0,0E0,0E0,0E0,0E0,0E0,0E0,0E0,0E0,0E0,0E0,0E0,0E0,0E0],"parents":[2147483647,0,0,1,1,2,2,3,3,4,4,5,5,6,6,7,7,8,8,9,9,10,10,11,11,12,12,13,13,14,14,15,15,16,16,17,17,18,18,19,19,20,20,21,21,22,22,23,23,24,24,25,25,26,26,27,27,28,28,29,29,30,30,31,31,32,32,33,33,34,34,35,35,36,36,37,37,38,38,39,39,40,40,41,41,42,42,43,43,44,44,45,45,46,46,47,47,48,48,49,49,50,50,51,51,52,52,53,53,54,54,55,55,56,56,57,57,58,58,59,59,60,60,61,61,62,62],"right_children":[2,4,6,8,10,12,14,16,18,20,22,24,26,28,30,32,34,36,38,40,42,44,46,48,50,52,54,56,58,60,62,64,66,68,70,72,74,76,78,80,82,84,86,88,90,92,94,96,98,100,102,104,106,108,110,112,114,116,118,120,122,124,126,-1,-1,-1,-1,-1,-1,-1,-1,-1,-1,-1,-1,-1,-1,-1,-1,-1,-1,-1,-1,-1,-1,-1,-1,-1,-1,-1,-1,-1,-1,-1,-1,-1,-1,-1,-1,-1,-1,-1,-1,-1,-1,-1,-1,-1,-1,-1,-1,-1,-1,-1,-1,-1,-1,-1,-1,-1,-1,-1,-1,-1,-1,-1,-1],"split_conditions":[8.701944E1,4.8244855E-1,4.1261566E-1,4.8640644E1,4.3184715E1,1.4159329E2,1.330737E2,2.9399934E-1,1.6939656E-1,6.94475E-1,7.8450304E-1,1.0198266E-1,2.1989E-1,6.674475E-1,6.016279E-1,1.8171574E1,3.305092E1,2.4635072E0,6.53072E1,2.4171059E-1,8.7959665E-1,5.552278E-1,6.53072E1,1.3887984E0,9.772793E1,1.6186697E2,1.7812337E2,5.062662E-1,8.1300884E-1,1.6111504E2,7.256319E-1,4.269507E-2,2.3747005E-2,2.7966443E2,4.7581028E1,1.8517279E1,8.356136E1,3.496113E-1,2.763429E2,2.8085592E1,4.884506E-1,8.197182E0,1.3496414E1,5.4966972E1,6.2227695E1,9.4927734E-1,2.975065E2,4.269507E-2,8.237912E1,1.5800252E0,2.7051127E-1,9.772878E-2,1.8910263E2,1.2165677E1,3.2207456E-1,1.3224945E2,1.7029372E2,1.0811208E2,1.1889045E2,5.0503464E1,1.8608412E2,1.6656322E2,1.5001952E2,-3.9090744E-1,-2.2178628E-1,-2.6474118E-1,-1.4466669E-1,-1.1975364E-1,3.908282E-2,1.1649576E-2,-1.0277962E-1,-3.001588E-1,-4.0555865E-2,9.47172E-3,-1.9386898E-1,-4.0891692E-2,4.2319257E-2,4.7366343E-2,1.19890615E-1,-3.525307E-1,-3.7354887E-2,1.34097E-1,1.0983453E-2,9.140734E-3,1.03024565E-1,1.0076806E-1,1.659368E-1,9.635086E-2,-5.4310936E-2,1.22928776E-1,1.6865717E-1,1.8574345E-1,2.3695418E-1,2.3863259E-1,-7.7570532E-3,-2.0109646E-1,4.408399E-3,1.00630604E-1,3.2266064E-3,-2.5706368E-2,5.99918E-2,8.632759E-2,1.4585502E-1,8.0858804E-2,1.4995086E-1,1.7312041E-1,2.2183351E-1,1.07732125E-1,2.1643198E-1,2.363495E-1,2.814203E-1,1.5985781E-1,-1.9897383E-2,2.1683294E-1,1.7898738E-1,2.216032E-1,2.6426384E-1,2.7593082E-1,3.1922075E-1,2.5263494E-1,1.9844946E-1,2.760568E-1,3.1093392E-1,2.840718E-1,3.254958E-1,3.2138574E-1,3.3622968E-1],"split_indices":[1,4,4,1,1,1,1,4,4,4,4,4,4,4,4,1,1,2,1,2,4,4,1,2,1,1,1,4,4,1,4,4,4,3,0,3,3,4,3,0,2,1,1,0,1,4,3,4,3,2,4,4,1,0,4,1,3,1,1,0,1,1,1,0,0,0,0,0,0,0,0,0,0,0,0,0,0,0,0,0,0,0,0,0,0,0,0,0,0,0,0,0,0,0,0,0,0,0,0,0,0,0,0,0,0,0,0,0,0,0,0,0,0,0,0,0,0,0,0,0,0,0,0,0,0,0,0],"split_type":[0,0,0,0,0,0,0,0,0,0,0,0,0,0,0,0,0,0,0,0,0,0,0,0,0,0,0,0,0,0,0,0,0,0,0,0,0,0,0,0,0,0,0,0,0,0,0,0,0,0,0,0,0,0,0,0,0,0,0,0,0,0,0,0,0,0,0,0,0,0,0,0,0,0,0,0,0,0,0,0,0,0,0,0,0,0,0,0,0,0,0,0,0,0,0,0,0,0,0,0,0,0,0,0,0,0,0,0,0,0,0,0,0,0,0,0,0,0,0,0,0,0,0,0,0,0,0],"sum_hessian":[3.8892426E4,1.4877931E4,2.4014496E4,6.414623E3,8.463308E3,8.88337E3,1.5131126E4,3.4145784E3,3.000045E3,3.9410996E3,4.522208E3,3.999469E3,4.883901E3,5.792087E3,9.339039E3,1.9807618E3,1.4338164E3,9.9744086E2,2.002604E3,1.5553379E3,2.3857617E3,2.5415122E3,1.9806956E3,9.17202E2,3.082267E3,2.516156E3,2.3677449E3,2.3258345E3,3.4662522E3,2.8658955E3,6.4731436E3,7.0573865E2,1.2750232E3,9.4722577E2,4.865906E2,5.116224E2,4.8581845E2,8.372447E2,1.1653593E3,6.218679E1,1.493151E3,1.4001255E3,9.856362E2,5.8199524E2,1.959517E3,9.6902185E2,1.0116737E3,2.4181853E2,6.7538354E2,5.764109E2,2.5058562E3,8.375878E2,1.6785681E3,1.4197588E3,9.4798596E2,8.073016E2,1.518533E3,1.4456733E3,2.020579E3,1.1603716E3,1.7055238E3,2.0275133E3,4.4456304E3,9.001053E1,6.157281E2,9.613824E1,1.178885E3,8.7279736E2,7.442841E1,3.8717838E2,9.941224E1,2.46061E1,4.870163E2,1.6697067E2,3.1884778E2,4.7487286E2,3.623718E2,1.0793596E3,8.5999664E1,1.7803665E1,4.438313E1,9.345403E1,1.399697E3,2.2009145E2,1.180034E3,2.811915E2,7.0444476E2,5.432397E2,3.875558E1,8.082935E2,1.1512235E3,7.287749E2,2.40247E2,1.00568506E3,5.9886217E0,8.052839E1,1.6129015E2,2.120893E2,4.6329422E2,1.7259296E2,4.0381796E2,1.3272947E3,1.1785614E3,3.7124207E2,4.663458E2,1.1651472E3,5.1342096E2,4.90108E1,1.370748E3,4.7956363E2,4.6842233E2,7.9578467E2,1.1516892E1,9.134543E2,6.050786E2,6.4256213E2,8.0311115E2,1.370573E3,6.500059E2,9.4005316E2,2.2031845E2,1.0635068E3,6.42017E2,9.8595276E2,1.0415605E3,1.1329152E3,3.312715E3],"tree_param":{"num_deleted":"0","num_feature":"5","num_nodes":"127","size_leaf_vector":"1"}},{"base_weights":[4.3002644E-1,1.5403822E-1,7.215627E-1,-1.18977346E-1,3.9182678E-1,4.9217686E-1,9.408621E-1,-2.7703652E-1,5.1594794E-2,2.1902785E-1,5.5745316E-1,3.5517827E-1,6.433081E-1,8.126201E-1,1.0083781E0,-4.186506E-1,-1.786113E-1,-1.08035825E-1,1.575057E-1,5.9554227E-2,3.3080205E-1,4.5098427E-1,7.1021706E-1,2.3554185E-1,5.160062E-1,5.0044405E-1,7.5763744E-1,6.907242E-1,9.403835E-1,9.179207E-1,1.0685596E0,-5.800488E-1,-3.4671748E-1,-4.2186224E-1,-1.4193483E-1,-1.7334121E-1,4.937575E-2,1.21606566E-1,2.559887E-1,-2.098623E-2,1.9131877E-1,2.538473E-1,4.270962E-1,3.3544484E-1,5.113055E-1,6.565714E-1,7.925289E-1,1.8401787E-1,3.5185167E-1,3.6893964E-1,5.806224E-1,3.3607373E-1,5.491654E-1,6.9686866E-1,8.3226943E-1,6.33679E-1,7.819844E-1,8.722413E-1,9.860197E-1,8.285433E-1,1.0033878E0,1.005872E0,3.2370004E-1,-2.0573907E-1,-1.1920409E-1,-5.6171596E-2,-1.3101165E-1,-7.486127E-1,-1.2204124E-1,2.042268E-2,-5.6033555E-2,-4.9429767E-2,-1.0881486E0,9.086609E-2,-3.581586E-2,-2.9388962E-3,4.1911222E-2,8.728398E-2,-2.8400285E-2,5.1816823E-3,-7.240853E-2,-8.411631E-3,8.878076E-2,8.556295E-2,7.140089E-3,1.1662413E-1,1.8722558E-1,-4.521706E-2,1.0542279E-1,1.3517554E-1,1.8674754E-1,1.9807726E-1,-5.061637E-1,2.2437929E-1,2.787876E-1,6.0753603E-2,-9.4319776E-2,7.413992E-2,1.318003E-1,6.80632E-2,1.3500449E-1,1.6793498E-1,2.3008917E-1,2.2090636E-2,1.19405344E-1,1.4904614E-1,2.028319E-1,1.9937234E-1,2.569298E-1,2.3376675E-1,2.79449E-1,1.3612358E-1,2.018801E-1,2.2139768E-1,2.6002574E-1,2.544068E-1,3.1581965E-1,2.5413972E-1,3.0569643E-1,2.3021339E-1,2.591074E-1,2.793042E-1,3.1088805E-1,2.7305275E-1,3.220752E-1],"categories":[],"categories_nodes":[],"categories_segments":[],"categories_sizes":[],"default_left":[0,0,0,0,0,0,0,0,0,0,0,0,0,0,0,0,0,0,0,0,0,0,0,0,0,0,0,0,0,0,0,0,0,0,0,0,0,0,0,0,0,0,0,0,0,0,0,0,0,0,0,0,0,0,0,0,0,0,0,0,0,0,0,0,0,0,0,0,0,0,0,0,0,0,0,0,0,0,0,0,0,0,0,0,0,0,0,0,0,0,0,0,0,0,0,0,0,0,0,0,0,0,0,0,0,0,0,0,0,0,0,0,0,0,0,0,0,0,0,0,0,0,0,0,0],"id":2,"left_children":[1,3,5,7,9,11,13,15,17,19,21,23,25,27,29,31,33,35,37,39,41,43,45,47,49,51,53,55,57,59,61,63,65,67,69,71,73,75,77,79,81,83,85,87,89,91,93,95,97,99,101,103,105,107,109,111,113,115,117,119,121,123,-1,-1,-1,-1,-1,-1,-1,-1,-1,-1,-1,-1,-1,-1,-1,-1,-1,-1,-1,-1,-1,-1,-1,-1,-1,-1,-1,-1,-1,-1,-1,-1,-1,-1,-1,-1,-1,-1,-1,-1,-1,-1,-1,-1,-1,-1,-1,-1,-1,-1,-1,-1,-1,-1,-1,-1,-1,-1,-1,-1,-1,-1,-1],"loss_changes":[2.7770093E3,1.1511888E3,8.438711E2,2.2257852E2,2.7112488E2,1.6966907E2,7.346924E1,5.9650116E1,6.715796E1,8.268794E1,7.837671E1,8.2736206E1,6.3328247E1,4.551587E1,2.9594238E1,2.0188599E1,2.2508911E1,1.6297281E1,8.410637E0,2.0307947E1,2.010495E1,1.9719788E1,8.246948E0,1.4744797E1,1.7233978E1,1.3724091E1,9.237061E0,7.421509E0,3.6322021E0,1.6363281E1,1.1179199E0,1.0159317E1,1.7387878E1,9.317734E0,2.0729149E1,3.2578156E1,1.994728E1,4.167221E0,7.8355637E0,1.0023221E1,1.666679E1,1.0949562E1,8.899338E0,7.6736374E0,1.2365936E1,1.1549561E1,4.053894E0,1.58692665E1,6.8314896E0,6.384842E0,4.5174255E0,6.467972E0,8.555328E0,5.6106567E0,4.360779E0,6.341614E0,1.5257874E0,1.6778259E0,3.0630493E0,1.7150879E0,1.7640381E0,2.2329407E0,0E0,0E0,0E0,0E0,0E0,0E0,0E0,0E0,0E0,0E0,0E0,0E0,0E0,0E0,0E0,0E0,0E0,0E0,0E0,0E0,0E0,0E0,0E0,0E0,0E0,0E0,0E0,0E0,0E0,0E0,0E0,0E0,0E0,0E0,0E0,0E0,0E0,0E0,0E0,0E0,0E0,0E0,0E0,0E0,0E0,0E0,0E0,0E0,0E0,0E0,0E0,0E0,0E0,0E0,0E0,0E0,0E0,0E0,0E0,0E0,0E0,0E0,0E0],"parents":[2147483647,0,0,1,1,2,2,3,3,4,4,5,5,6,6,7,7,8,8,9,9,10,10,11,11,12,12,13,13,14,14,15,15,16,16,17,17,18,18,19,19,20,20,21,21,22,22,23,23,24,24,25,25,26,26,27,27,28,28,29,29,30,30,31,31,32,32,33,33,34,34,35,35,36,36,37,37,38,38,39,39,40,40,41,41,42,42,43,43,44,44,45,45,46,46,47,47,48,48,49,49,50,50,51,51,52,52,53,53,54,54,55,55,56,56,57,57,58,58,59,59,60,60,61,61],"right_children":[2,4,6,8,10,12,14,16,18,20,22,24,26,28,30,32,34,36,38,40,42,44,46,48,50,52,54,56,58,60,62,64,66,68,70,72,74,76,78,80,82,84,86,88,90,92,94,96,98,100,102,104,106,108,110,112,114,116,118,120,122,124,-1,-1,-1,-1,-1,-1,-1,-1,-1,-1,-1,-1,-1,-1,-1,-1,-1,-1,-1,-1,-1,-1,-1,-1,-1,-1,-1,-1,-1,-1,-1,-1,-1,-1,-1,-1,-1,-1,-1,-1,-1,-1,-1,-1,-1,-1,-1,-1,-1,-1,-1,-1,-1,-1,-1,-1,-1,-1,-1,-1,-1,-1,-1],"split_conditions":[1.06436676E2,4.8244855E-1,5.062662E-1,5.6618877E1,5.3329052E1,1.5639734E2,1.3939777E2,2.0748675E-1,1.9225354E-1,6.94475E-1,7.926008E-1,2.9399934E-1,2.3172967E-1,7.6532793E-1,7.023858E-1,1.8171574E1,8.197182E0,3.5826375E0,9.313576E1,3.3881886E1,3.0797644E1,7.146557E1,8.620348E1,1.4159329E2,1.2204902E2,5.477133E-2,3.853653E-1,1.2678525E2,1.1964223E2,1.6966153E2,7.454621E-1,1.9358495E2,2.7290304E1,7.723712E-2,4.887629E1,3.564164E0,1.0215037E2,2.2727738E-1,1.048936E2,5.2454693E1,2.7482084E1,2.5967047E2,9.5292E-1,1.1543026E1,6.863871E-1,2.9878854E2,9.56816E-1,1.4013065E2,1.339994E-1,3.737867E-1,2.6804077E2,1.6491994E2,1.8839961E2,1.9312398E2,1.8608412E2,5.517689E-1,6.788417E-1,9.7631377E-1,8.1300884E-1,5.7859147E-1,1.7892E2,1.6491994E2,3.2370004E-1,-2.0573907E-1,-1.1920409E-1,-5.6171596E-2,-1.3101165E-1,-7.486127E-1,-1.2204124E-1,2.042268E-2,-5.6033555E-2,-4.9429767E-2,-1.0881486E0,9.086609E-2,-3.581586E-2,-2.9388962E-3,4.1911222E-2,8.728398E-2,-2.8400285E-2,5.1816823E-3,-7.240853E-2,-8.411631E-3,8.878076E-2,8.556295E-2,7.140089E-3,1.1662413E-1,1.8722558E-1,-4.521706E-2,1.0542279E-1,1.3517554E-1,1.8674754E-1,1.9807726E-1,-5.061637E-1,2.2437929E-1,2.787876E-1,6.0753603E-2,-9.4319776E-2,7.413992E-2,1.318003E-1,6.80632E-2,1.3500449E-1,1.6793498E-1,2.3008917E-1,2.2090636E-2,1.19405344E-1,1.4904614E-1,2.028319E-1,1.9937234E-1,2.569298E-1,2.3376675E-1,2.79449E-1,1.3612358E-1,2.018801E-1,2.2139768E-1,2.6002574E-1,2.544068E-1,3.1581965E-1,2.5413972E-1,3.0569643E-1,2.3021339E-1,2.591074E-1,2.793042E-1,3.1088805E-1,2.7305275E-1,3.220752E-1],"split_indices":[1,4,4,1,1,1,1,4,4,4,4,4,4,4,4,1,1,2,1,1,1,1,1,1,1,4,4,1,1,1,4,3,0,2,3,2,3,4,1,0,0,3,4,3,4,3,4,1,4,4,3,1,1,1,1,4,4,4,4,4,1,1,0,0,0,0,0,0,0,0,0,0,0,0,0,0,0,0,0,0,0,0,0,0,0,0,0,0,0,0,0,0,0,0,0,0,0,0,0,0,0,0,0,0,0,0,0,0,0,0,0,0,0,0,0,0,0,0,0,0,0,0,0,0,0],"split_type":[0,0,0,0,0,0,0,0,0,0,0,0,0,0,0,0,0,0,0,0,0,0,0,0,0,0,0,0,0,0,0,0,0,0,0,0,0,0,0,0,0,0,0,0,0,0,0,0,0,0,0,0,0,0,0,0,0,0,0,0,0,0,0,0,0,0,0,0,0,0,0,0,0,0,0,0,0,0,0,0,0,0,0,0,0,0,0,0,0,0,0,0,0,0,0,0,0,0,0,0,0,0,0,0,0,0,0,0,0,0,0,0,0,0,0,0,0,0,0,0,0,0,0,0,0],"sum_hessian":[3.451429E4,1.773071E4,1.678358E4,8.254199E3,9.476512E3,8.204729E3,8.578852E3,4.283919E3,3.9702803E3,4.6389707E3,4.837541E3,4.3053413E3,3.8993877E3,2.9633025E3,5.6155483E3,1.7552356E3,2.5286833E3,1.5835333E3,2.386747E3,1.9122314E3,2.7267393E3,2.8530542E3,1.9844867E3,2.4702441E3,1.8350972E3,1.7357722E3,2.1636152E3,1.5197511E3,1.4435514E3,2.249949E3,3.3655996E3,5.389394E2,1.2162961E3,3.2993546E2,2.1987478E3,1.1191359E3,4.6439746E2,1.7507839E3,6.35963E2,1.1873252E3,7.2490625E2,1.5175804E3,1.2091587E3,9.808651E2,1.8721891E3,1.2068895E3,7.775971E2,1.713683E3,7.56561E2,5.622123E2,1.2728849E3,3.9867313E2,1.3370991E3,1.1982682E3,9.653471E2,9.400716E2,5.796795E2,5.8707184E2,8.5647955E2,1.105043E3,1.144906E3,4.9440323E2,2.8711965E3,3.3961578E2,1.9932361E2,4.3985538E2,7.764408E2,1.1911902E0,3.2874426E2,3.8679666E2,1.8119512E3,1.1174093E3,1.7266576E0,1.8527934E2,2.7911813E2,2.1199345E2,1.5387905E3,5.784646E2,5.749845E1,1.0124751E3,1.748501E2,2.3432133E2,4.9058493E2,1.3352981E3,1.822824E2,1.0146114E3,1.9454736E2,3.0916594E1,9.4994855E2,1.2141671E3,6.58022E2,1.2057115E3,1.1779656E0,5.912583E2,1.863388E2,1.652943E3,6.0739983E1,3.4609845E2,4.1046255E2,2.0565552E2,3.5655676E2,1.1484537E3,1.2443111E2,7.654859E1,3.2212454E2,9.5019366E2,3.8690546E2,1.0008674E3,1.9740085E2,6.3482275E2,3.3052435E2,1.7060751E2,7.694641E2,3.880164E2,1.9166309E2,5.2264124E2,6.443065E1,1.6942627E2,6.870533E2,4.115999E2,6.93443E2,3.670025E2,7.779035E2,2.1085184E2,2.835514E2],"tree_param":{"num_deleted":"0","num_feature":"5","num_nodes":"125","size_leaf_vector":"1"}},{"base_weights":[3.4827793E-1,1.17126085E-1,6.2830234E-1,-5.8100473E-2,3.4472173E-1,4.0245897E-1,8.7986535E-1,-1.6417126E-1,6.747606E-2,1.6984226E-1,4.6742046E-1,2.7807084E-1,5.5023664E-1,7.312786E-1,9.623433E-1,-2.3524772E-1,-4.9148556E-2,-7.371898E-2,1.4504565E-1,1.1330112E-1,3.242034E-1,3.6434242E-1,5.802217E-1,1.764078E-1,4.1931462E-1,4.0527448E-1,6.709394E-1,5.990208E-1,8.7460935E-1,8.5142535E-1,1.0363157E0,-5.211821E-1,-2.1633151E-1,-1.3990858E-1,5.5066973E-2,-5.76221E-2,-6.247059E-1,9.529686E-2,2.439657E-1,-8.81347E-2,1.493506E-1,3.564496E-1,4.1691836E-2,2.7703834E-1,4.379712E-1,4.6287555E-1,6.465523E-1,-6.099531E-2,1.9625875E-1,2.873001E-1,4.8097917E-1,2.9445013E-1,4.702056E-1,5.997068E-1,7.560508E-1,5.2484596E-1,6.7366743E-1,7.9305214E-1,9.310937E-1,7.783243E-1,9.9565274E-1,9.5655125E-1,3.1496724E-1,-4.1177562E-1,-1.3402471E-1,-6.1632372E-2,-2.0921998E-1,-1.5729341E-1,-3.388682E-2,2.29933E-2,-1.8124187E-1,-3.325824E-2,3.909978E-2,-9.376701E-2,-5.47866E-1,3.0029463E-2,-1.6486695E-1,4.7113042E-2,1.18040614E-1,-1.8952787E-2,-8.5001373E-1,8.453028E-2,2.5929911E-2,1.09735444E-1,-3.0897963E-1,-2.5868818E-1,6.301569E-2,6.459066E-2,1.0255996E-1,1.3489462E-1,-5.606139E-2,1.5803188E-1,1.0165302E-1,1.6268447E-1,2.1157284E-1,-7.671213E-2,1.0691368E-1,4.899463E-2,9.8025255E-2,1.2782077E-1,6.494671E-2,1.536765E-1,1.0178245E-1,-4.9345575E-2,1.0331678E-1,1.20055236E-1,1.8106337E-1,1.6982053E-1,2.3232041E-1,2.0941305E-1,2.6081124E-1,6.011259E-2,1.636004E-1,1.8291745E-1,2.3175703E-1,2.61975E-1,2.1442588E-1,2.2958416E-1,2.9173276E-1,1.7508897E-1,2.3808238E-1,2.606668E-1,3.0513543E-1,2.519847E-1,3.1285965E-1],"categories":[],"categories_nodes":[],"categories_segments":[],"categories_sizes":[],"default_left":[0,0,0,0,0,0,0,0,0,0,0,0,0,0,0,0,0,0,0,0,0,0,0,0,0,0,0,0,0,0,0,0,0,0,0,0,0,0,0,0,0,0,0,0,0,0,0,0,0,0,0,0,0,0,0,0,0,0,0,0,0,0,0,0,0,0,0,0,0,0,0,0,0,0,0,0,0,0,0,0,0,0,0,0,0,0,0,0,0,0,0,0,0,0,0,0,0,0,0,0,0,0,0,0,0,0,0,0,0,0,0,0,0,0,0,0,0,0,0,0,0,0,0,0,0],"id":3,"left_children":[1,3,5,7,9,11,13,15,17,19,21,23,25,27,29,31,33,35,37,39,41,43,45,47,49,51,53,55,57,59,61,63,65,67,69,71,73,75,77,79,81,83,85,87,89,91,93,95,97,99,101,103,105,107,109,111,113,115,117,119,121,123,-1,-1,-1,-1,-1,-1,-1,-1,-1,-1,-1,-1,-1,-1,-1,-1,-1,-1,-1,-1,-1,-1,-1,-1,-1,-1,-1,-1,-1,-1,-1,-1,-1,-1,-1,-1,-1,-1,-1,-1,-1,-1,-1,-1,-1,-1,-1,-1,-1,-1,-1,-1,-1,-1,-1,-1,-1,-1,-1,-1,-1,-1,-1],"loss_changes":[2.0135002E3,6.7968494E2,7.98833E2,1.2828085E2,1.5899664E2,1.3613184E2,8.08374E1,4.266948E1,4.8313164E1,2.665586E1,5.0439453E1,5.7760437E1,5.8999634E1,4.4576904E1,3.4197266E1,1.7338623E1,1.8879324E1,1.3839224E1,1.3986137E1,1.6279078E1,7.449646E0,1.4527557E1,1.5877563E1,1.1057106E1,1.3578461E1,1.0954773E1,1.0743713E1,6.515167E0,4.5114136E0,1.7318848E1,1.7675781E0,1.2029377E1,1.5720245E1,1.0992636E1,1.3266921E1,1.5235554E1,1.6046007E1,5.924715E0,1.2309158E1,2.3161558E1,1.5807911E1,9.893181E0,1.3129343E1,4.1101E0,9.0920105E0,5.7976227E0,7.727722E0,1.485052E1,9.245438E0,5.203697E0,4.909668E0,1.3170837E1,8.818619E0,5.4982605E0,4.89917E0,4.0574646E0,3.4150696E0,2.3463745E0,3.8327637E0,2.9395142E0,6.772461E-1,2.9848938E0,0E0,0E0,0E0,0E0,0E0,0E0,0E0,0E0,0E0,0E0,0E0,0E0,0E0,0E0,0E0,0E0,0E0,0E0,0E0,0E0,0E0,0E0,0E0,0E0,0E0,0E0,0E0,0E0,0E0,0E0,0E0,0E0,0E0,0E0,0E0,0E0,0E0,0E0,0E0,0E0,0E0,0E0,0E0,0E0,0E0,0E0,0E0,0E0,0E0,0E0,0E0,0E0,0E0,0E0,0E0,0E0,0E0,0E0,0E0,0E0,0E0,0E0,0E0],"parents":[2147483647,0,0,1,1,2,2,3,3,4,4,5,5,6,6,7,7,8,8,9,9,10,10,11,11,12,12,13,13,14,14,15,15,16,16,17,17,18,18,19,19,20,20,21,21,22,22,23,23,24,24,25,25,26,26,27,27,28,28,29,29,30,30,31,31,32,32,33,33,34,34,35,35,36,36,37,37,38,38,39,39,40,40,41,41,42,42,43,43,44,44,45,45,46,46,47,47,48,48,49,49,50,50,51,51,52,52,53,53,54,54,55,55,56,56,57,57,58,58,59,59,60,60,61,61],"right_children":[2,4,6,8,10,12,14,16,18,20,22,24,26,28,30,32,34,36,38,40,42,44,46,48,50,52,54,56,58,60,62,64,66,68,70,72,74,76,78,80,82,84,86,88,90,92,94,96,98,100,102,104,106,108,110,112,114,116,118,120,122,124,-1,-1,-1,-1,-1,-1,-1,-1,-1,-1,-1,-1,-1,-1,-1,-1,-1,-1,-1,-1,-1,-1,-1,-1,-1,-1,-1,-1,-1,-1,-1,-1,-1,-1,-1,-1,-1,-1,-1,-1,-1,-1,-1,-1,-1,-1,-1,-1,-1,-1,-1,-1,-1,-1,-1,-1,-1,-1,-1,-1,-1,-1,-1],"split_conditions":[1.06436676E2,5.552278E-1,5.1411915E-1,5.7356094E1,4.3184715E1,1.5639734E2,1.3939777E2,3.496113E-1,1.8856487E-1,8.7959665E-1,7.8450304E-1,2.9399934E-1,2.3172967E-1,7.6532793E-1,7.023858E-1,2.3747005E-2,3.0797644E1,5.8585133E1,4.312086E-1,4.887629E1,2.6672302E2,7.146557E1,6.6015724E1,2.3747005E-2,1.2204902E2,8.62312E-2,3.853653E-1,1.228551E2,1.1964223E2,1.7892E2,7.454621E-1,4.880112E0,3.4230924E-1,3.659195E-1,5.7597225E1,2.4097914E2,2.1377646E2,5.9603104E1,8.775123E1,5.941101E1,1.559788E0,4.941281E0,5.7255235E0,1.631519E2,2.9266937E2,1.9358495E2,8.677428E-1,3.7415998E0,1.4626169E2,1.6591334E0,5.0687416E1,1.6111504E2,1.8608412E2,1.9312398E2,1.8608412E2,5.2908117E-1,6.674475E-1,3.4188614E1,8.1300884E-1,4.1016135E-1,5.4459876E-1,1.6491994E2,3.1496724E-1,-4.1177562E-1,-1.3402471E-1,-6.1632372E-2,-2.0921998E-1,-1.5729341E-1,-3.388682E-2,2.29933E-2,-1.8124187E-1,-3.325824E-2,3.909978E-2,-9.376701E-2,-5.47866E-1,3.0029463E-2,-1.6486695E-1,4.7113042E-2,1.18040614E-1,-1.8952787E-2,-8.5001373E-1,8.453028E-2,2.5929911E-2,1.09735444E-1,-3.0897963E-1,-2.5868818E-1,6.301569E-2,6.459066E-2,1.0255996E-1,1.3489462E-1,-5.606139E-2,1.5803188E-1,1.0165302E-1,1.6268447E-1,2.1157284E-1,-7.671213E-2,1.0691368E-1,4.899463E-2,9.8025255E-2,1.2782077E-1,6.494671E-2,1.536765E-1,1.0178245E-1,-4.9345575E-2,1.0331678E-1,1.20055236E-1,1.8106337E-1,1.6982053E-1,2.3232041E-1,2.0941305E-1,2.6081124E-1,6.011259E-2,1.636004E-1,1.8291745E-1,2.3175703E-1,2.61975E-1,2.1442588E-1,2.2958416E-1,2.9173276E-1,1.7508897E-1,2.3808238E-1,2.606668E-1,3.0513543E-1,2.519847E-1,3.1285965E-1],"split_indices":[1,4,4,1,1,1,1,4,4,4,4,4,4,4,4,4,1,0,4,3,3,1,1,4,1,4,4,1,1,1,4,1,4,4,0,3,3,0,1,0,2,2,1,3,3,3,4,2,1,2,0,1,1,1,1,4,4,0,4,2,4,1,0,0,0,0,0,0,0,0,0,0,0,0,0,0,0,0,0,0,0,0,0,0,0,0,0,0,0,0,0,0,0,0,0,0,0,0,0,0,0,0,0,0,0,0,0,0,0,0,0,0,0,0,0,0,0,0,0,0,0,0,0,0,0],"split_type":[0,0,0,0,0,0,0,0,0,0,0,0,0,0,0,0,0,0,0,0,0,0,0,0,0,0,0,0,0,0,0,0,0,0,0,0,0,0,0,0,0,0,0,0,0,0,0,0,0,0,0,0,0,0,0,0,0,0,0,0,0,0,0,0,0,0,0,0,0,0,0,0,0,0,0,0,0,0,0,0,0,0,0,0,0,0,0,0,0,0,0,0,0,0,0,0,0,0,0,0,0,0,0,0,0,0,0,0,0,0,0,0,0,0,0,0,0,0,0,0,0,0,0,0,0],"sum_hessian":[3.1107164E4,1.7041408E4,1.4065757E4,9.628862E3,7.412545E3,7.413135E3,6.652622E3,5.219661E3,4.409201E3,3.0573557E3,4.3551895E3,4.0266694E3,3.3864656E3,2.3781575E3,4.2744644E3,3.225481E3,1.9941803E3,1.5634329E3,2.8457683E3,2.2389731E3,8.183824E2,2.2778845E3,2.077305E3,2.3427078E3,1.6839617E3,1.5405936E3,1.8458718E3,1.2395486E3,1.1386089E3,1.7151675E3,2.5592969E3,1.9849597E2,3.026985E3,1.0657175E3,9.2846277E2,1.5201276E3,4.3305378E1,1.8948002E3,9.509681E2,3.3964932E2,1.8993239E3,7.3430615E2,8.407623E1,1.0443392E3,1.2335453E3,7.530515E2,1.3242533E3,1.8061455E2,2.1620933E3,5.379502E2,1.1460114E3,5.7120197E2,9.6939166E2,1.00924634E3,8.366255E2,6.2576746E2,6.137812E2,4.720541E2,6.665548E2,1.1424949E3,5.7267267E2,3.8261176E2,2.1766853E3,1.4556056E1,1.8393991E2,2.9613735E3,6.561158E1,6.861808E1,9.970994E2,8.99891E2,2.8571783E1,1.1849089E3,3.352186E2,3.5375164E1,7.930212E0,1.881635E3,1.3165196E1,6.026393E2,3.483288E2,3.37603E2,2.046348E0,6.106548E2,1.2886691E3,7.3012604E2,4.18015E0,1.2553018E1,7.152322E1,5.371397E2,5.0719955E2,1.2111901E3,2.235523E1,4.948656E2,2.581859E2,4.8061713E2,8.4363617E2,1.2342306E2,5.7191494E1,1.7280824E3,4.3401077E2,1.8006271E2,3.578875E2,9.366638E2,2.0934755E2,5.583061E1,5.153714E2,6.382321E2,3.3115958E2,8.4984436E2,1.5940201E2,5.5809973E2,2.7852573E2,3.7807457E1,5.8796E2,3.77058E2,2.3672316E2,2.2818413E2,2.4386996E2,1.369357E2,5.296191E2,8.601075E1,1.0564841E3,8.893657E1,4.8373608E2,1.6731555E2,2.152962E2],"tree_param":{"num_deleted":"0","num_feature":"5","num_nodes":"125","size_leaf_vector":"1"}},{"base_weights":[2.76872E-1,1.11993864E-1,5.7962185E-1,-2.1640856E-2,3.0244505E-1,3.5205826E-1,8.572915E-1,-9.7586215E-2,9.313335E-2,1.739652E-1,4.73805E-1,2.3322424E-1,4.652442E-1,7.1216613E-1,9.660939E-1,-1.8500696E-1,-4.9614437E-2,-9.004645E-2,1.3548683E-1,9.559527E-2,2.5274643E-1,3.2211193E-1,5.6762356E-1,1.5015283E-1,3.5213438E-1,3.4833315E-1,5.703348E-1,5.9922665E-1,8.9043206E-1,8.51924E-1,1.0184854E0,1.0037734E-1,-2.0498644E-1,-1.2422524E-1,-2.368579E-3,-1.770877E0,-7.389168E-2,9.732539E-2,2.279671E-1,-7.6148576E-1,1.0317185E-1,1.4811999E-1,3.2536763E-1,3.6489302E-1,2.0007071E-1,4.8631164E-1,6.6229177E-1,2.30596E-1,8.605731E-2,1.9742747E-1,3.8415018E-1,-3.2142907E-1,3.5957742E-1,4.9674636E-1,6.6103095E-1,4.9749717E-1,6.3601226E-1,8.198053E-1,9.780073E-1,6.961625E-1,9.475798E-1,9.675395E-1,3.1287405E-1,-1.4667255E-2,2.6532605E-1,-8.198315E-2,-3.5824496E-2,-3.4731522E-2,-6.009164E-1,7.5704455E-2,-6.510645E-3,-1.4384922E-1,-1.1480355E0,-1.0185207E-2,-2.5057206E-1,4.0988255E-2,1.1992061E-2,-1.8935512E-1,7.05175E-2,-3.144829E-1,1.8881917E-1,1.4783707E-2,5.616203E-2,-1.0026988E-1,5.263683E-2,8.7898985E-2,1.4059223E-1,9.850749E-2,1.6299416E-1,1.4384207E-1,3.2597125E-2,1.4713302E-1,-2.8422815E-1,1.816632E-1,2.4868849E-1,-5.5365926E-1,7.11994E-2,2.1135036E-2,2.540696E-1,7.5240925E-2,-2.3460133E-1,1.17014796E-1,-2.5300676E-1,-4.0649004E-2,-5.386725E-1,8.451461E-2,1.22656174E-1,1.6769248E-1,1.19445994E-1,1.5248471E-1,2.2091354E-1,1.859481E-1,1.1675304E-1,1.712994E-1,2.0977215E-1,2.0895252E-1,2.6351422E-1,2.5949728E-1,3.0212644E-1,-7.6404415E-2,2.1381547E-1,2.4129933E-1,2.886751E-1,2.5265735E-1,3.0904245E-1],"categories":[],"categories_nodes":[],"categories_segments":[],"categories_sizes":[],"default_left":[0,0,0,0,0,0,0,0,0,0,0,0,0,0,0,0,0,0,0,0,0,0,0,0,0,0,0,0,0,0,0,0,0,0,0,0,0,0,0,0,0,0,0,0,0,0,0,0,0,0,0,0,0,0,0,0,0,0,0,0,0,0,0,0,0,0,0,0,0,0,0,0,0,0,0,0,0,0,0,0,0,0,0,0,0,0,0,0,0,0,0,0,0,0,0,0,0,0,0,0,0,0,0,0,0,0,0,0,0,0,0,0,0,0,0,0,0,0,0,0,0,0,0,0,0],"id":4,"left_children":[1,3,5,7,9,11,13,15,17,19,21,23,25,27,29,31,33,35,37,39,41,43,45,47,49,51,53,55,57,59,61,63,65,67,69,71,73,75,77,79,81,83,85,87,89,91,93,95,97,99,101,103,105,107,109,111,113,115,117,119,121,123,-1,-1,-1,-1,-1,-1,-1,-1,-1,-1,-1,-1,-1,-1,-1,-1,-1,-1,-1,-1,-1,-1,-1,-1,-1,-1,-1,-1,-1,-1,-1,-1,-1,-1,-1,-1,-1,-1,-1,-1,-1,-1,-1,-1,-1,-1,-1,-1,-1,-1,-1,-1,-1,-1,-1,-1,-1,-1,-1,-1,-1,-1,-1],"loss_changes":[1.4230073E3,4.6978763E2,6.348291E2,9.4567245E1,1.6748907E2,7.421649E1,7.078784E1,2.7370949E1,3.353015E1,2.6841995E1,4.622357E1,2.6595016E1,3.4561584E1,3.8592773E1,1.4590332E1,1.32083435E1,1.486457E1,2.1915443E1,1.2362961E1,1.4254559E1,1.6435257E1,6.4448395E0,1.5176514E1,8.177864E0,5.41597E0,1.0221039E1,9.605164E0,4.1469727E0,3.847229E0,1.1542847E1,1.1889648E0,1.7832306E1,1.26009445E1,2.5735504E1,1.2725534E1,1.8570118E1,2.4457882E1,5.5980835E0,6.389229E0,8.337701E0,9.794788E0,1.1802856E1,5.797989E0,5.839119E0,8.2804985E0,6.9031982E0,8.270874E0,1.0288647E1,1.0466789E1,1.0242287E1,6.973465E0,5.9740877E0,4.9499817E0,4.8433228E0,7.2638855E0,4.0168457E0,3.1868591E0,2.4378967E0,2.1472168E-1,5.145981E0,2.8649902E-1,3.7329102E0,0E0,0E0,0E0,0E0,0E0,0E0,0E0,0E0,0E0,0E0,0E0,0E0,0E0,0E0,0E0,0E0,0E0,0E0,0E0,0E0,0E0,0E0,0E0,0E0,0E0,0E0,0E0,0E0,0E0,0E0,0E0,0E0,0E0,0E0,0E0,0E0,0E0,0E0,0E0,0E0,0E0,0E0,0E0,0E0,0E0,0E0,0E0,0E0,0E0,0E0,0E0,0E0,0E0,0E0,0E0,0E0,0E0,0E0,0E0,0E0,0E0,0E0,0E0],"parents":[2147483647,0,0,1,1,2,2,3,3,4,4,5,5,6,6,7,7,8,8,9,9,10,10,11,11,12,12,13,13,14,14,15,15,16,16,17,17,18,18,19,19,20,20,21,21,22,22,23,23,24,24,25,25,26,26,27,27,28,28,29,29,30,30,31,31,32,32,33,33,34,34,35,35,36,36,37,37,38,38,39,39,40,40,41,41,42,42,43,43,44,44,45,45,46,46,47,47,48,48,49,49,50,50,51,51,52,52,53,53,54,54,55,55,56,56,57,57,58,58,59,59,60,60,61,61],"right_children":[2,4,6,8,10,12,14,16,18,20,22,24,26,28,30,32,34,36,38,40,42,44,46,48,50,52,54,56,58,60,62,64,66,68,70,72,74,76,78,80,82,84,86,88,90,92,94,96,98,100,102,104,106,108,110,112,114,116,118,120,122,124,-1,-1,-1,-1,-1,-1,-1,-1,-1,-1,-1,-1,-1,-1,-1,-1,-1,-1,-1,-1,-1,-1,-1,-1,-1,-1,-1,-1,-1,-1,-1,-1,-1,-1,-1,-1,-1,-1,-1,-1,-1,-1,-1,-1,-1,-1,-1,-1,-1,-1,-1,-1,-1,-1,-1,-1,-1,-1,-1,-1,-1,-1,-1],"split_conditions":[1.2044996E2,5.552278E-1,5.0226146E-1,7.075192E1,6.53072E1,2.3172967E-1,7.023858E-1,2.0014477E-1,1.0198266E-1,7.6898605E-1,7.1850574E-1,1.6491994E2,1.5639734E2,1.6808412E2,1.4462471E2,1.3144521E1,2.694028E1,7.723712E-2,4.1619784E-1,7.9653865E-1,2.694028E1,2.186571E2,9.4721275E1,1.2580219E2,3.8916245E-2,5.8735847E0,1.8043983E2,1.330737E2,1.8523323E2,8.1300884E-1,8.008951E-1,4.5891247E0,1.7029372E2,5.9603104E1,3.1889948E-1,9.079913E1,5.7193283E1,3.925341E1,1.059675E1,5.5771923E1,3.9238277E1,1.3513702E1,9.56816E-1,1.1114732E2,2.074405E1,2.9878854E2,9.3025696E-1,1.0189504E1,5.941101E1,1.9765059E2,2.975065E2,1.5089484E2,3.342994E-1,4.0036987E1,3.2207456E-1,1.2931596E2,6.016279E-1,5.66973E-1,5.4459876E-1,9.885837E-2,3.403385E1,1.6269666E2,3.1287405E-1,-1.4667255E-2,2.6532605E-1,-8.198315E-2,-3.5824496E-2,-3.4731522E-2,-6.009164E-1,7.5704455E-2,-6.510645E-3,-1.4384922E-1,-1.1480355E0,-1.0185207E-2,-2.5057206E-1,4.0988255E-2,1.1992061E-2,-1.8935512E-1,7.05175E-2,-3.144829E-1,1.8881917E-1,1.4783707E-2,5.616203E-2,-1.0026988E-1,5.263683E-2,8.7898985E-2,1.4059223E-1,9.850749E-2,1.6299416E-1,1.4384207E-1,3.2597125E-2,1.4713302E-1,-2.8422815E-1,1.816632E-1,2.4868849E-1,-5.5365926E-1,7.11994E-2,2.1135036E-2,2.540696E-1,7.5240925E-2,-2.3460133E-1,1.17014796E-1,-2.5300676E-1,-4.0649004E-2,-5.386725E-1,8.451461E-2,1.22656174E-1,1.6769248E-1,1.19445994E-1,1.5248471E-1,2.2091354E-1,1.859481E-1,1.1675304E-1,1.712994E-1,2.0977215E-1,2.0895252E-1,2.6351422E-1,2.5949728E-1,3.0212644E-1,-7.6404415E-2,2.1381547E-1,2.4129933E-1,2.886751E-1,2.5265735E-1,3.0904245E-1],"split_indices":[1,4,4,1,1,4,4,4,4,4,4,1,1,1,1,0,1,2,4,1,1,3,1,3,4,3,1,1,1,4,4,2,3,0,2,1,0,0,0,0,1,0,4,1,0,3,4,0,0,1,3,1,4,0,4,3,4,4,4,2,3,1,0,0,0,0,0,0,0,0,0,0,0,0,0,0,0,0,0,0,0,0,0,0,0,0,0,0,0,0,0,0,0,0,0,0,0,0,0,0,0,0,0,0,0,0,0,0,0,0,0,0,0,0,0,0,0,0,0,0,0,0,0,0,0],"split_type":[0,0,0,0,0,0,0,0,0,0,0,0,0,0,0,0,0,0,0,0,0,0,0,0,0,0,0,0,0,0,0,0,0,0,0,0,0,0,0,0,0,0,0,0,0,0,0,0,0,0,0,0,0,0,0,0,0,0,0,0,0,0,0,0,0,0,0,0,0,0,0,0,0,0,0,0,0,0,0,0,0,0,0,0,0,0,0,0,0,0,0,0,0,0,0,0,0,0,0,0,0,0,0,0,0,0,0,0,0,0,0,0,0,0,0,0,0,0,0,0,0,0,0,0,0],"sum_hessian":[2.8507867E4,1.8457338E4,1.005053E4,1.0847095E4,7.6102427E3,5.524888E3,4.525642E3,6.5278247E3,4.31927E3,4.350444E3,3.2597986E3,2.696691E3,2.8281975E3,1.9423696E3,2.5832725E3,2.3119023E3,4.2159224E3,8.109153E2,3.5083547E3,2.182025E3,2.1684192E3,1.2473765E3,2.0124221E3,1.5889219E3,1.1077689E3,1.3408478E3,1.4873497E3,1.1917218E3,7.506478E2,8.179916E2,1.7652809E3,1.5100087E2,2.1609016E3,1.6339517E3,2.5819707E3,6.6856413E0,8.042297E2,2.4849907E3,1.0233641E3,1.8248112E1,2.1637769E3,8.896813E2,1.2787379E3,9.2213556E2,3.2524097E2,1.0858809E3,9.265414E2,7.034536E2,8.854683E2,1.9116882E2,9.166001E2,2.16836E1,1.3191641E3,8.246929E2,6.6265686E2,3.2034396E2,8.713778E2,4.212687E2,3.2937912E2,3.143678E2,5.0362378E2,5.852735E2,1.1800074E3,1.27638374E2,2.3362495E1,1.2005796E3,9.603219E2,1.6276897E3,6.261912E0,1.8130136E2,2.4006694E3,4.8637795E0,1.8218616E0,7.6513464E2,3.9095013E1,1.4737062E3,1.0112845E3,7.6569977E0,1.0157071E3,1.5332897E1,2.9152153E0,1.3192858E3,8.44491E2,4.7114082E1,8.425672E2,1.0455518E3,2.3318616E2,7.6776324E2,1.5437233E2,7.913187E1,2.461091E2,1.0834165E3,2.4642787E0,6.946573E2,2.3188408E2,1.3919263E0,7.0206165E2,8.6874036E2,1.6727938E1,1.8199467E2,9.174143E0,9.128952E2,3.7049348E0,2.0224606E1,1.4589922E0,5.1388635E2,8.052778E2,5.0272235E2,3.219705E2,2.2145555E2,4.412013E2,1.4822565E2,1.7211832E2,4.3456653E2,4.3681128E2,1.3982912E2,2.814396E2,7.3700676E1,2.5567844E2,5.133803E0,3.09234E2,5.1972126E1,4.5165167E2,1.9975533E2,3.855182E2],"tree_param":{"num_deleted":"0","num_feature":"5","num_nodes":"125","size_leaf_vector":"1"}},{"base_weights":[2.1613769E-1,8.459812E-2,4.9354595E-1,-2.4540354E-3,2.6120922E-1,2.7986863E-1,7.994514E-1,-6.1409306E-2,7.572722E-2,1.462738E-1,4.254879E-1,2.0600684E-1,4.228087E-1,6.334304E-1,9.3041337E-1,-1.264109E-1,-2.1444731E-3,3.678584E-2,1.7454033E-1,7.8187875E-2,2.1264943E-1,3.4907895E-1,5.7739323E-1,1.3430387E-1,3.1065202E-1,3.6031097E-1,6.3723016E-1,5.158832E-1,8.489193E-1,7.8935903E-1,9.9606246E-1,3.375568E-3,-1.4516136E-1,-5.433468E-2,5.743275E-2,-1.2473995E-1,5.805102E-2,1.342716E-1,4.2727262E-1,-9.17118E-2,1.1043081E-1,1.7321205E-1,3.4150675E-1,2.4085657E-1,4.199415E-1,4.8067197E-1,7.1269774E-1,7.233738E-2,1.8397267E-1,1.9695838E-1,3.562286E-1,4.2173445E-1,2.6521495E-1,5.759237E-1,7.927494E-1,4.567921E-1,5.978882E-1,7.398261E-1,9.2323756E-1,6.213756E-1,9.0169084E-1,9.3033093E-1,3.0849463E-1,-6.005E-1,5.618364E-3,-1.0151979E-1,-3.5974838E-2,1.1071536E-2,-4.227358E-2,-8.936541E-2,2.1000253E-2,-3.576272E-1,-2.755904E-2,1.3243665E-2,6.615318E-2,2.2577062E-2,7.206833E-2,3.705776E-2,1.6430092E-1,-4.800387E-2,1.1921854E-1,-8.499032E-3,4.655762E-2,5.515929E-2,-1.1765828E-1,9.1440156E-2,1.9092883E-1,9.216149E-2,3.3560745E-2,-1.0409533E-1,1.276985E-1,1.8860696E-1,1.2894751E-1,1.990566E-1,2.753858E-1,2.386412E-2,-3.2824078E-1,-4.5222133E-2,5.9259783E-2,6.391872E-2,-1.13573655E-1,2.1382378E-2,1.144991E-1,4.9512252E-2,1.3485612E-1,-1.7195763E-1,8.4161386E-2,1.7590354E-1,-1.3885134E-1,1.2703757E-1,2.5943822E-1,1.0838723E-1,1.5542056E-1,7.8873165E-2,1.9264525E-1,1.9348957E-1,2.5430787E-1,2.3646219E-1,2.9587305E-1,1.9209567E-1,-2.3275085E-1,2.180127E-1,2.7625564E-1,2.33024E-1,3.034044E-1],"categories":[],"categories_nodes":[],"categories_segments":[],"categories_sizes":[],"default_left":[0,0,0,0,0,0,0,0,0,0,0,0,0,0,0,0,0,0,0,0,0,0,0,0,0,0,0,0,0,0,0,0,0,0,0,0,0,0,0,0,0,0,0,0,0,0,0,0,0,0,0,0,0,0,0,0,0,0,0,0,0,0,0,0,0,0,0,0,0,0,0,0,0,0,0,0,0,0,0,0,0,0,0,0,0,0,0,0,0,0,0,0,0,0,0,0,0,0,0,0,0,0,0,0,0,0,0,0,0,0,0,0,0,0,0,0,0,0,0,0,0,0,0,0,0],"id":5,"left_children":[1,3,5,7,9,11,13,15,17,19,21,23,25,27,29,31,33,35,37,39,41,43,45,47,49,51,53,55,57,59,61,63,65,67,69,71,73,75,77,79,81,83,85,87,89,91,93,95,97,99,101,103,105,107,109,111,113,115,117,119,121,123,-1,-1,-1,-1,-1,-1,-1,-1,-1,-1,-1,-1,-1,-1,-1,-1,-1,-1,-1,-1,-1,-1,-1,-1,-1,-1,-1,-1,-1,-1,-1,-1,-1,-1,-1,-1,-1,-1,-1,-1,-1,-1,-1,-1,-1,-1,-1,-1,-1,-1,-1,-1,-1,-1,-1,-1,-1,-1,-1,-1,-1,-1,-1],"loss_changes":[9.6885376E2,2.7693652E2,5.58021E2,5.5622097E1,1.122294E2,5.301584E1,7.576343E1,2.6502497E1,1.9956247E1,1.5803558E1,2.8207275E1,2.485527E1,2.2720947E1,3.886676E1,1.7372803E1,7.9850807E0,1.1195755E1,1.2793995E1,1.4865341E1,9.4851465E0,8.945755E0,1.2406738E1,1.0357086E1,6.0522156E0,6.9168243E0,7.6475067E0,3.2162323E0,4.6044617E0,3.7447815E0,1.12829895E1,1.8721924E0,1.2816858E1,1.3945023E1,1.5166363E1,7.5292683E0,1.5098581E1,7.4231567E0,7.899603E0,7.2852173E0,9.298238E0,9.036579E0,8.255852E0,4.290058E0,5.508835E0,4.465622E0,3.3412094E0,2.8100739E0,7.4748497E0,4.991768E0,3.6776323E0,6.940071E0,5.6702576E0,6.89262E0,3.3020172E0,2.4609604E0,3.261116E0,6.033493E0,1.7691193E0,1.9519348E0,7.2388916E0,5.8447266E-1,4.8102417E0,0E0,0E0,0E0,0E0,0E0,0E0,0E0,0E0,0E0,0E0,0E0,0E0,0E0,0E0,0E0,0E0,0E0,0E0,0E0,0E0,0E0,0E0,0E0,0E0,0E0,0E0,0E0,0E0,0E0,0E0,0E0,0E0,0E0,0E0,0E0,0E0,0E0,0E0,0E0,0E0,0E0,0E0,0E0,0E0,0E0,0E0,0E0,0E0,0E0,0E0,0E0,0E0,0E0,0E0,0E0,0E0,0E0,0E0,0E0,0E0,0E0,0E0,0E0],"parents":[2147483647,0,0,1,1,2,2,3,3,4,4,5,5,6,6,7,7,8,8,9,9,10,10,11,11,12,12,13,13,14,14,15,15,16,16,17,17,18,18,19,19,20,20,21,21,22,22,23,23,24,24,25,25,26,26,27,27,28,28,29,29,30,30,31,31,32,32,33,33,34,34,35,35,36,36,37,37,38,38,39,39,40,40,41,41,42,42,43,43,44,44,45,45,46,46,47,47,48,48,49,49,50,50,51,51,52,52,53,53,54,54,55,55,56,56,57,57,58,58,59,59,60,60,61,61],"right_children":[2,4,6,8,10,12,14,16,18,20,22,24,26,28,30,32,34,36,38,40,42,44,46,48,50,52,54,56,58,60,62,64,66,68,70,72,74,76,78,80,82,84,86,88,90,92,94,96,98,100,102,104,106,108,110,112,114,116,118,120,122,124,-1,-1,-1,-1,-1,-1,-1,-1,-1,-1,-1,-1,-1,-1,-1,-1,-1,-1,-1,-1,-1,-1,-1,-1,-1,-1,-1,-1,-1,-1,-1,-1,-1,-1,-1,-1,-1,-1,-1,-1,-1,-1,-1,-1,-1,-1,-1,-1,-1,-1,-1,-1,-1,-1,-1,-1,-1,-1,-1,-1,-1,-1,-1],"split_conditions":[1.2133151E2,6.2172323E-1,5.062662E-1,6.6015724E1,6.53072E1,3.139685E-1,7.023858E-1,2.9399934E-1,4.2740074E-1,3.156156E1,8.677428E-1,1.6491994E2,1.8043983E2,1.6966153E2,1.4462471E2,3.7378E1,3.3881886E1,5.0853703E-2,4.3535323E0,4.9999676E1,9.065085E-1,8.620348E1,9.7019775E1,1.339994E-1,8.62312E-2,4.0036987E1,1.9460344E2,1.4927982E2,1.812765E2,8.1300884E-1,8.008951E-1,7.9653865E-1,6.9569855E1,2.3296733E0,1.1543026E1,2.0063974E-1,2.77422E2,1.01120674E2,4.8244855E-1,9.56816E-1,8.197182E0,5.8792194E1,4.449536E0,1.9477603E2,2.485125E0,1.1548482E0,9.7631377E-1,4.960573E0,2.0063974E-1,2.903111E2,4.2801917E-1,3.342994E-1,5.8735847E0,5.941101E1,2.0168873E1,1.9754481E0,5.2908117E-1,6.092142E-1,5.709175E-1,2.9501053E2,3.403385E1,1.6269666E2,3.0849463E-1,-6.005E-1,5.618364E-3,-1.0151979E-1,-3.5974838E-2,1.1071536E-2,-4.227358E-2,-8.936541E-2,2.1000253E-2,-3.576272E-1,-2.755904E-2,1.3243665E-2,6.615318E-2,2.2577062E-2,7.206833E-2,3.705776E-2,1.6430092E-1,-4.800387E-2,1.1921854E-1,-8.499032E-3,4.655762E-2,5.515929E-2,-1.1765828E-1,9.1440156E-2,1.9092883E-1,9.216149E-2,3.3560745E-2,-1.0409533E-1,1.276985E-1,1.8860696E-1,1.2894751E-1,1.990566E-1,2.753858E-1,2.386412E-2,-3.2824078E-1,-4.5222133E-2,5.9259783E-2,6.391872E-2,-1.13573655E-1,2.1382378E-2,1.144991E-1,4.9512252E-2,1.3485612E-1,-1.7195763E-1,8.4161386E-2,1.7590354E-1,-1.3885134E-1,1.2703757E-1,2.5943822E-1,1.0838723E-1,1.5542056E-1,7.8873165E-2,1.9264525E-1,1.9348957E-1,2.5430787E-1,2.3646219E-1,2.9587305E-1,1.9209567E-1,-2.3275085E-1,2.180127E-1,2.7625564E-1,2.33024E-1,3.034044E-1],"split_indices":[1,4,4,1,1,4,4,4,4,1,4,1,1,1,1,3,1,4,2,3,4,1,1,4,4,0,1,1,1,4,4,1,3,2,3,2,3,1,4,4,1,0,2,3,3,2,4,2,2,3,2,4,3,0,0,2,4,4,4,3,3,1,0,0,0,0,0,0,0,0,0,0,0,0,0,0,0,0,0,0,0,0,0,0,0,0,0,0,0,0,0,0,0,0,0,0,0,0,0,0,0,0,0,0,0,0,0,0,0,0,0,0,0,0,0,0,0,0,0,0,0,0,0,0,0],"split_type":[0,0,0,0,0,0,0,0,0,0,0,0,0,0,0,0,0,0,0,0,0,0,0,0,0,0,0,0,0,0,0,0,0,0,0,0,0,0,0,0,0,0,0,0,0,0,0,0,0,0,0,0,0,0,0,0,0,0,0,0,0,0,0,0,0,0,0,0,0,0,0,0,0,0,0,0,0,0,0,0,0,0,0,0,0,0,0,0,0,0,0,0,0,0,0,0,0,0,0,0,0,0,0,0,0,0,0,0,0,0,0,0,0,0,0,0,0,0,0,0,0,0,0,0,0],"sum_hessian":[2.6551238E4,1.801182E4,8.539418E3,1.2065624E4,5.946197E3,5.028728E3,3.5106902E3,6.87871E3,5.186914E3,3.4996226E3,2.4465742E3,3.31711E3,1.7116177E3,1.550699E3,1.9599912E3,3.2800369E3,3.598673E3,3.721626E3,1.465288E3,1.7286295E3,1.7709929E3,1.6299839E3,8.165904E2,1.9697317E3,1.3473784E3,1.327399E3,3.8421872E2,1.0055659E3,5.4513306E2,6.2663055E2,1.3333606E3,4.141568E2,2.8658801E3,1.9183065E3,1.6803666E3,4.3239322E2,3.289233E3,1.2652263E3,2.0006165E2,2.7543234E2,1.4531973E3,1.3577816E3,4.132113E2,6.46713E2,9.8327094E2,4.7884488E2,3.377455E2,8.774664E2,1.0922653E3,3.870869E2,9.6029144E2,8.0439636E2,5.230027E2,2.7895605E2,1.05262665E2,5.8825305E2,4.1731284E2,2.2532664E2,3.1980643E2,2.5372955E2,3.7290103E2,4.48718E2,8.846426E2,2.1639092E0,4.119929E2,3.2971268E2,2.5361675E3,9.3428265E2,9.840239E2,5.66309E1,1.6237356E3,1.1866966E1,4.2052625E2,3.0310652E3,2.5816754E2,8.137178E2,4.5150858E2,5.7364414E1,1.4269724E2,2.4227309E2,3.3159267E1,3.5452594E2,1.0986713E3,1.3333363E3,2.4445246E1,3.6928357E2,4.3927742E1,4.2613605E2,2.2057695E2,6.8377843E0,9.764331E2,1.1952815E2,3.593167E2,2.7588135E2,6.186416E1,8.730024E2,4.4640045E0,4.213324E1,1.0501321E3,3.7716336E2,9.923551E0,7.9003365E1,8.812881E2,7.924554E1,7.251508E2,8.733558E0,5.142691E2,2.7661642E2,2.3396416E0,1.8306063E1,8.69566E1,2.3261336E2,3.556397E2,4.951617E1,3.6779666E2,1.2360462E2,1.0172203E2,1.0604575E2,2.1376068E2,2.5087E2,2.8595512E0,4.064604E1,3.3225497E2,1.5861618E2,2.901018E2],"tree_param":{"num_deleted":"0","num_feature":"5","num_nodes":"125","size_leaf_vector":"1"}},{"base_weights":[1.6600324E-1,7.477272E-2,4.4298074E-1,9.858277E-3,2.2988738E-1,2.655734E-1,8.360229E-1,-6.409644E-2,5.0793163E-2,1.4069507E-1,4.6020654E-1,1.482562E-1,3.7102497E-1,6.816753E-1,9.644559E-1,-1.7538041E-1,-3.5433307E-2,1.8338631E-3,1.0654484E-1,7.602889E-2,2.0733003E-1,3.5378286E-1,5.7724154E-1,1.16809666E-1,3.277344E-1,3.1571165E-1,5.332237E-1,5.266062E-1,8.7435377E-1,8.430515E-1,3.0305737E-1,-1.6032624E-1,-1.9820927E0,2.9718655E-1,-4.705452E-2,6.9782576E-3,-7.8339756E-1,5.2869443E-2,1.6858155E-1,-1.06609814E-1,1.0297462E-1,1.5941633E-1,3.2935038E-1,2.5248528E-1,4.0427282E-1,4.9995586E-1,8.045646E-1,1.7745069E-1,5.5391785E-2,-1.1744719E0,3.5129917E-1,2.4395111E-1,4.092504E-1,3.5550246E-1,6.044258E-1,2.0834796E-1,5.5417275E-1,7.546754E-1,9.8284864E-1,6.886038E-1,2.945984E-1,-1.3223964E-1,-3.0846478E-2,1.4959422E-1,-8.1291455E-1,-5.024047E-1,1.17164545E-1,-1.7789483E-2,3.441834E-2,1.422086E-1,3.8885078E-4,1.179042E-1,-3.7153688E-1,2.4909018E-2,-2.0630114E-2,4.612885E-2,1.3925754E-1,-2.5645267E-2,-8.185356E-1,2.3518097E-2,8.082612E-2,2.6488526E-2,6.953883E-2,3.579771E-2,1.1826801E-1,-3.7876144E-1,8.273122E-2,1.0592582E-1,1.5845369E-1,1.3139206E-1,2.0997363E-1,1.2204117E-1,2.5361583E-1,-5.176036E-1,5.4575942E-2,-5.625409E-2,3.0491054E-2,-1.0495722E0,1.575549E-1,-4.206355E-1,1.1012076E-1,-3.1749908E-2,7.963324E-2,1.0739418E-1,1.4589244E-1,1.1384805E-1,-2.1467395E-1,1.5643984E-1,2.0772523E-1,1.6451816E-1,-1.5763798E-1,1.8456417E-1,1.299381E-1,1.7645149E-1,2.3908725E-1,1.0761413E-1,2.962183E-1,2.2678977E-1,4.363088E-2],"categories":[],"categories_nodes":[],"categories_segments":[],"categories_sizes":[],"default_left":[0,0,0,0,0,0,0,0,0,0,0,0,0,0,0,0,0,0,0,0,0,0,0,0,0,0,0,0,0,0,0,0,0,0,0,0,0,0,0,0,0,0,0,0,0,0,0,0,0,0,0,0,0,0,0,0,0,0,0,0,0,0,0,0,0,0,0,0,0,0,0,0,0,0,0,0,0,0,0,0,0,0,0,0,0,0,0,0,0,0,0,0,0,0,0,0,0,0,0,0,0,0,0,0,0,0,0,0,0,0,0,0,0,0,0,0,0,0,0],"id":6,"left_children":[1,3,5,7,9,11,13,15,17,19,21,23,25,27,29,31,33,35,37,39,41,43,45,47,49,51,53,55,57,59,-1,61,63,65,67,69,71,73,75,77,79,81,83,85,87,89,91,93,95,97,99,101,103,105,107,109,111,113,115,117,-1,-1,-1,-1,-1,-1,-1,-1,-1,-1,-1,-1,-1,-1,-1,-1,-1,-1,-1,-1,-1,-1,-1,-1,-1,-1,-1,-1,-1,-1,-1,-1,-1,-1,-1,-1,-1,-1,-1,-1,-1,-1,-1,-1,-1,-1,-1,-1,-1,-1,-1,-1,-1,-1,-1,-1,-1,-1,-1],"loss_changes":[6.3409155E2,1.9008948E2,4.3332214E2,4.0296772E1,1.14350555E2,5.296115E1,3.7664673E1,1.5121916E1,2.338722E1,1.7290588E1,1.9155487E1,1.1420349E1,2.0073486E1,2.5875092E1,4.9937744E0,2.6095432E1,1.4596809E1,1.843794E1,1.3331043E1,1.0049712E1,1.1508614E1,4.0747223E0,1.2575485E1,6.430151E0,1.1107838E1,1.1209732E1,7.026993E0,4.1912537E0,4.342102E0,5.6353455E0,0E0,1.5505581E1,1.5677614E1,2.4125744E1,7.229109E0,1.203262E1,1.639079E1,7.890655E0,8.067223E0,1.4319855E1,7.2537575E0,7.298809E0,7.537201E0,1.0025366E1,3.2595825E0,6.55838E0,2.6725845E0,7.708826E0,9.685286E0,2.1179544E1,8.761337E0,7.214527E0,2.7098465E0,4.5404224E0,2.611145E0,1.0452043E1,3.0670166E0,8.722458E-1,2.1905518E-1,5.1088715E0,0E0,0E0,0E0,0E0,0E0,0E0,0E0,0E0,0E0,0E0,0E0,0E0,0E0,0E0,0E0,0E0,0E0,0E0,0E0,0E0,0E0,0E0,0E0,0E0,0E0,0E0,0E0,0E0,0E0,0E0,0E0,0E0,0E0,0E0,0E0,0E0,0E0,0E0,0E0,0E0,0E0,0E0,0E0,0E0,0E0,0E0,0E0,0E0,0E0,0E0,0E0,0E0,0E0,0E0,0E0,0E0,0E0,0E0,0E0],"parents":[2147483647,0,0,1,1,2,2,3,3,4,4,5,5,6,6,7,7,8,8,9,9,10,10,11,11,12,12,13,13,14,14,15,15,16,16,17,17,18,18,19,19,20,20,21,21,22,22,23,23,24,24,25,25,26,26,27,27,28,28,29,29,31,31,32,32,33,33,34,34,35,35,36,36,37,37,38,38,39,39,40,40,41,41,42,42,43,43,44,44,45,45,46,46,47,47,48,48,49,49,50,50,51,51,52,52,53,53,54,54,55,55,56,56,57,57,58,58,59,59],"right_children":[2,4,6,8,10,12,14,16,18,20,22,24,26,28,30,32,34,36,38,40,42,44,46,48,50,52,54,56,58,60,-1,62,64,66,68,70,72,74,76,78,80,82,84,86,88,90,92,94,96,98,100,102,104,106,108,110,112,114,116,118,-1,-1,-1,-1,-1,-1,-1,-1,-1,-1,-1,-1,-1,-1,-1,-1,-1,-1,-1,-1,-1,-1,-1,-1,-1,-1,-1,-1,-1,-1,-1,-1,-1,-1,-1,-1,-1,-1,-1,-1,-1,-1,-1,-1,-1,-1,-1,-1,-1,-1,-1,-1,-1,-1,-1,-1,-1,-1,-1],"split_conditions":[1.330737E2,6.403819E-1,5.746595E-1,4.3184715E1,8.620348E1,2.3532486E-1,7.454621E-1,1.3803983E-1,3.139685E-1,4.0043926E1,8.1300884E-1,1.8910263E2,1.8043983E2,1.6656322E2,1.5001952E2,2.9619025E2,1.5384884E-1,1.3224945E2,8.775123E1,3.860707E1,8.9085907E-1,1.758755E0,1.1889045E2,1.4558002E2,3.8422882E-3,4.2009324E-1,3.2207456E-1,4.1016135E-1,1.8209073E2,8.6382943E-1,3.0305737E-1,5.9432938E1,1.1175121E1,1.526463E1,4.6680713E0,4.3997807E1,6.7893654E-1,2.3645464E2,5.7597225E1,5.941101E1,9.4927734E-1,3.5352383E1,5.024734E1,5.8735847E0,4.5640873E1,9.56816E-1,3.403385E1,1.0189504E1,1.4159329E2,3.4832973E0,1.0394611E1,3.1889948E-1,1.6033817E2,2.939433E2,1.9073738E2,2.9727358E-1,3.4052765E0,6.092142E-1,3.6774125E0,4.3535323E0,2.945984E-1,-1.3223964E-1,-3.0846478E-2,1.4959422E-1,-8.1291455E-1,-5.024047E-1,1.17164545E-1,-1.7789483E-2,3.441834E-2,1.422086E-1,3.8885078E-4,1.179042E-1,-3.7153688E-1,2.4909018E-2,-2.0630114E-2,4.612885E-2,1.3925754E-1,-2.5645267E-2,-8.185356E-1,2.3518097E-2,8.082612E-2,2.6488526E-2,6.953883E-2,3.579771E-2,1.1826801E-1,-3.7876144E-1,8.273122E-2,1.0592582E-1,1.5845369E-1,1.3139206E-1,2.0997363E-1,1.2204117E-1,2.5361583E-1,-5.176036E-1,5.4575942E-2,-5.625409E-2,3.0491054E-2,-1.0495722E0,1.575549E-1,-4.206355E-1,1.1012076E-1,-3.1749908E-2,7.963324E-2,1.0739418E-1,1.4589244E-1,1.1384805E-1,-2.1467395E-1,1.5643984E-1,2.0772523E-1,1.6451816E-1,-1.5763798E-1,1.8456417E-1,1.299381E-1,1.7645149E-1,2.3908725E-1,1.0761413E-1,2.962183E-1,2.2678977E-1,4.363088E-2],"split_indices":[1,4,4,1,1,4,4,4,4,1,4,1,1,1,1,3,4,1,1,3,4,2,1,3,4,4,4,2,1,4,0,3,0,0,2,1,2,3,0,0,4,0,1,3,0,4,3,0,1,2,0,2,1,3,1,2,2,4,3,2,0,0,0,0,0,0,0,0,0,0,0,0,0,0,0,0,0,0,0,0,0,0,0,0,0,0,0,0,0,0,0,0,0,0,0,0,0,0,0,0,0,0,0,0,0,0,0,0,0,0,0,0,0,0,0,0,0,0,0],"split_type":[0,0,0,0,0,0,0,0,0,0,0,0,0,0,0,0,0,0,0,0,0,0,0,0,0,0,0,0,0,0,0,0,0,0,0,0,0,0,0,0,0,0,0,0,0,0,0,0,0,0,0,0,0,0,0,0,0,0,0,0,0,0,0,0,0,0,0,0,0,0,0,0,0,0,0,0,0,0,0,0,0,0,0,0,0,0,0,0,0,0,0,0,0,0,0,0,0,0,0,0,0,0,0,0,0,0,0,0,0,0,0,0,0,0,0,0,0,0,0],"sum_hessian":[2.5094162E4,1.8877562E4,6.216599E3,1.3308928E4,5.5686343E3,4.2844185E3,1.932181E3,4.7417373E3,8.567191E3,4.0152993E3,1.5533351E3,2.0292446E3,2.2551736E3,8.804209E2,1.0517601E3,9.701261E2,3.771611E3,4.562013E3,4.005178E3,2.03884E3,1.9764594E3,8.156559E2,7.376792E2,1.7281116E3,3.0113303E2,1.6838801E3,5.712935E2,4.8988818E2,3.905327E2,2.9311633E2,7.586438E2,9.631892E2,6.936892E0,1.2649605E2,3.645115E3,4.5333047E3,2.8708548E1,2.1482883E3,1.8568896E3,2.6174832E2,1.7770916E3,1.4208435E3,5.556158E2,2.7331238E2,5.4234357E2,5.52902E2,1.847772E2,8.686045E2,8.595071E2,3.8965352E0,2.972365E2,9.5490753E2,7.2897253E2,1.6512706E2,4.0616647E2,3.9732376E1,4.501558E2,1.8947874E2,2.0105397E2,1.4163379E2,1.5148256E2,1.6274637E2,8.004428E2,1.6445813E0,5.2923107E0,4.9527607E0,1.2154329E2,3.3892488E3,2.558662E2,5.34981E1,4.4798066E3,8.045576E0,2.0662971E1,1.7216986E3,4.2658975E2,1.7696963E3,8.719337E1,2.6068048E2,1.0678381E0,1.5497004E3,2.2739116E2,7.1777185E2,7.030717E2,1.3179475E2,4.2382104E2,3.33155E0,2.6998083E2,3.8651874E2,1.558248E2,4.2450452E2,1.2839746E2,1.8218946E1,1.6655826E2,1.1330442E0,8.6747144E2,1.3697604E2,7.22531E2,1.1988413E0,2.6976938E0,1.8658711E0,2.9537064E2,5.505188E1,8.9985565E2,4.4112115E2,2.8785138E2,1.6214098E2,2.9860852E0,2.1262611E2,1.9354037E2,2.732341E1,1.2408968E1,2.9653583E2,1.5361998E2,4.1391727E1,1.4808702E2,2.0315225E0,1.9902245E2,1.2565824E2,1.5975541E1],"tree_param":{"num_deleted":"0","num_feature":"5","num_nodes":"119","size_leaf_vector":"1"}},{"base_weights":[1.2563513E-1,4.3383505E-2,3.3208975E-1,-1.1147331E-2,1.3579653E-1,1.9212411E-1,7.509351E-1,-3.5116386E-2,4.6875447E-2,6.778194E-2,2.3507217E-1,1.2029348E-1,3.1483904E-1,5.631914E-1,8.887112E-1,-5.3973228E-2,3.8885377E-2,3.7809074E-2,3.1340727E-1,5.3488005E-2,2.0030133E-1,1.864354E-1,4.1237605E-1,5.865571E-2,1.751377E-1,2.537396E-1,5.122058E-1,3.9533755E-1,8.2730806E-1,7.2105795E-1,9.8715776E-1,-2.6764523E-3,-8.465326E-2,-1.6821428E-1,9.591027E-2,-8.977911E-2,5.10333E-2,-8.4067386E-1,3.7495607E-1,5.7162642E-2,-4.6040115E-1,3.12713E-1,3.1809658E-2,1.5482783E-1,2.8275636E-1,3.753695E-1,7.4593115E-1,-1.0808548E0,6.6204995E-2,8.222912E-2,2.1386872E-1,3.206325E-1,1.5157309E-1,4.2134908E-1,6.621507E-1,-8.695367E-1,4.034403E-1,7.701146E-1,9.5110357E-1,5.815138E-1,9.6119756E-1,4.0805933E-1,9.90204E-1,-1.6725004E-2,2.9987974E-2,-6.913874E-2,-1.3483111E-2,-3.275955E-2,-3.190494E-1,5.0176922E-2,-1.3150431E-2,-1.8068427E-2,-6.011578E-1,2.043562E-2,-1.906286E-2,2.4422601E-1,-7.0580256E-1,-2.6478988E-1,1.2729163E-1,3.3165902E-2,8.735484E-3,-7.4743044E-1,-3.8447097E-2,1.0864019E-1,-5.50679E-2,-1.7479685E-1,5.7028037E-2,4.9019355E-2,-5.706935E-2,2.7363393E-1,7.891175E-2,8.879672E-2,1.5453328E-1,7.316815E-2,2.5172338E-1,-5.840906E-1,1.240559E-1,4.2740963E-2,2.3737613E-3,2.7260052E-2,-2.1425667E-1,5.8463033E-2,1.459637E-1,6.0153626E-2,1.172153E-1,-3.545182E-1,4.885254E-2,1.0871857E-1,1.8941073E-1,-9.171295E-2,2.0822379E-1,1.6036555E-1,-5.4583967E-1,8.930352E-2,1.4951175E-1,1.5194532E-1,2.3916985E-1,1.6075751E-1,2.9490098E-1,2.0493045E-2,1.8681982E-1,1.3089252E-1,2.902886E-1,-1.2280313E-1,2.2582321E-1,2.6889357E-1,3.0330625E-1],"categories":[],"categories_nodes":[],"categories_segments":[],"categories_sizes":[],"default_left":[0,0,0,0,0,0,0,0,0,0,0,0,0,0,0,0,0,0,0,0,0,0,0,0,0,0,0,0,0,0,0,0,0,0,0,0,0,0,0,0,0,0,0,0,0,0,0,0,0,0,0,0,0,0,0,0,0,0,0,0,0,0,0,0,0,0,0,0,0,0,0,0,0,0,0,0,0,0,0,0,0,0,0,0,0,0,0,0,0,0,0,0,0,0,0,0,0,0,0,0,0,0,0,0,0,0,0,0,0,0,0,0,0,0,0,0,0,0,0,0,0,0,0,0,0,0,0],"id":7,"left_children":[1,3,5,7,9,11,13,15,17,19,21,23,25,27,29,31,33,35,37,39,41,43,45,47,49,51,53,55,57,59,61,63,65,67,69,71,73,75,77,79,81,83,85,87,89,91,93,95,97,99,101,103,105,107,109,111,113,115,117,119,121,123,125,-1,-1,-1,-1,-1,-1,-1,-1,-1,-1,-1,-1,-1,-1,-1,-1,-1,-1,-1,-1,-1,-1,-1,-1,-1,-1,-1,-1,-1,-1,-1,-1,-1,-1,-1,-1,-1,-1,-1,-1,-1,-1,-1,-1,-1,-1,-1,-1,-1,-1,-1,-1,-1,-1,-1,-1,-1,-1,-1,-1,-1,-1,-1,-1],"loss_changes":[4.078537E2,8.656276E1,4.010036E2,1.5026714E1,4.302569E1,4.5182983E1,4.3823486E1,1.067146E1,7.6210403E0,7.157463E0,2.2268646E1,1.0934406E1,2.2704437E1,3.1947021E1,1.557135E1,9.58987E0,1.8359566E1,5.1606803E0,7.6865406E0,6.479123E0,6.9615145E0,6.1525345E0,6.5951385E0,1.3198076E1,6.145527E0,9.846764E0,5.8058167E0,4.932358E0,1.2639465E0,1.1796219E1,6.876221E-1,1.2434054E1,2.2067276E1,1.7621323E1,1.2156349E1,1.6132948E1,5.425964E0,1.583306E1,6.531701E0,5.078288E0,1.6126785E1,5.478554E0,1.4544958E1,4.569195E0,5.9850883E0,5.431221E0,2.3490849E0,1.3877905E1,6.7420483E0,3.542627E0,6.1619263E0,7.28051E0,8.828609E0,3.2487717E0,5.3658524E0,5.190476E0,4.3181763E0,1.0125961E0,5.9716797E-1,4.9438934E0,3.0075073E-2,1.6997566E0,2.9571533E-1,0E0,0E0,0E0,0E0,0E0,0E0,0E0,0E0,0E0,0E0,0E0,0E0,0E0,0E0,0E0,0E0,0E0,0E0,0E0,0E0,0E0,0E0,0E0,0E0,0E0,0E0,0E0,0E0,0E0,0E0,0E0,0E0,0E0,0E0,0E0,0E0,0E0,0E0,0E0,0E0,0E0,0E0,0E0,0E0,0E0,0E0,0E0,0E0,0E0,0E0,0E0,0E0,0E0,0E0,0E0,0E0,0E0,0E0,0E0,0E0,0E0,0E0,0E0,0E0],"parents":[2147483647,0,0,1,1,2,2,3,3,4,4,5,5,6,6,7,7,8,8,9,9,10,10,11,11,12,12,13,13,14,14,15,15,16,16,17,17,18,18,19,19,20,20,21,21,22,22,23,23,24,24,25,25,26,26,27,27,28,28,29,29,30,30,31,31,32,32,33,33,34,34,35,35,36,36,37,37,38,38,39,39,40,40,41,41,42,42,43,43,44,44,45,45,46,46,47,47,48,48,49,49,50,50,51,51,52,52,53,53,54,54,55,55,56,56,57,57,58,58,59,59,60,60,61,61,62,62],"right_children":[2,4,6,8,10,12,14,16,18,20,22,24,26,28,30,32,34,36,38,40,42,44,46,48,50,52,54,56,58,60,62,64,66,68,70,72,74,76,78,80,82,84,86,88,90,92,94,96,98,100,102,104,106,108,110,112,114,116,118,120,122,124,126,-1,-1,-1,-1,-1,-1,-1,-1,-1,-1,-1,-1,-1,-1,-1,-1,-1,-1,-1,-1,-1,-1,-1,-1,-1,-1,-1,-1,-1,-1,-1,-1,-1,-1,-1,-1,-1,-1,-1,-1,-1,-1,-1,-1,-1,-1,-1,-1,-1,-1,-1,-1,-1,-1,-1,-1,-1,-1,-1,-1,-1,-1,-1,-1],"split_conditions":[1.2044996E2,5.552278E-1,6.092142E-1,8.1424164E1,6.2227695E1,3.342994E-1,1.4927982E2,4.399036E-1,4.849301E0,9.4927734E-1,8.87361E-1,1.5334016E2,1.7659373E2,8.1300884E-1,7.2954345E-1,1.0805375E2,2.1896208E1,5.0853703E-2,2.3747005E-2,5.9603104E1,1.8084164E2,1.0414037E2,9.8813367E-1,2.485125E0,8.62312E-2,4.0036987E1,4.908926E-1,2.485125E0,9.419553E-1,1.7812337E2,1.0394611E1,7.321232E1,1.8171574E1,2.1135082E1,4.639562E1,5.8585133E1,4.1570406E0,2.695794E1,1.2165677E1,1.7188371E0,3.860707E1,9.9584895E-1,1.017817E0,2.9266937E2,1.1394732E1,9.7019775E1,7.146557E1,1.4784215E2,1.2700807E2,2.9501053E2,5.6796688E1,1.3939777E2,4.0253563E1,1.9460344E2,1.2165677E1,2.5799654E1,6.983668E-1,3.1554688E1,1.228551E2,3.924757E-1,3.6774125E0,1.6269666E2,7.807883E-1,-1.6725004E-2,2.9987974E-2,-6.913874E-2,-1.3483111E-2,-3.275955E-2,-3.190494E-1,5.0176922E-2,-1.3150431E-2,-1.8068427E-2,-6.011578E-1,2.043562E-2,-1.906286E-2,2.4422601E-1,-7.0580256E-1,-2.6478988E-1,1.2729163E-1,3.3165902E-2,8.735484E-3,-7.4743044E-1,-3.8447097E-2,1.0864019E-1,-5.50679E-2,-1.7479685E-1,5.7028037E-2,4.9019355E-2,-5.706935E-2,2.7363393E-1,7.891175E-2,8.879672E-2,1.5453328E-1,7.316815E-2,2.5172338E-1,-5.840906E-1,1.240559E-1,4.2740963E-2,2.3737613E-3,2.7260052E-2,-2.1425667E-1,5.8463033E-2,1.459637E-1,6.0153626E-2,1.172153E-1,-3.545182E-1,4.885254E-2,1.0871857E-1,1.8941073E-1,-9.171295E-2,2.0822379E-1,1.6036555E-1,-5.4583967E-1,8.930352E-2,1.4951175E-1,1.5194532E-1,2.3916985E-1,1.6075751E-1,2.9490098E-1,2.0493045E-2,1.8681982E-1,1.3089252E-1,2.902886E-1,-1.2280313E-1,2.2582321E-1,2.6889357E-1,3.0330625E-1],"split_indices":[1,4,4,1,1,4,1,4,2,4,4,1,1,4,4,3,0,4,4,0,3,1,4,3,4,0,4,3,4,1,0,3,1,0,0,0,2,3,0,2,3,4,2,3,0,1,1,1,3,3,0,1,0,1,0,0,4,3,1,2,3,1,4,0,0,0,0,0,0,0,0,0,0,0,0,0,0,0,0,0,0,0,0,0,0,0,0,0,0,0,0,0,0,0,0,0,0,0,0,0,0,0,0,0,0,0,0,0,0,0,0,0,0,0,0,0,0,0,0,0,0,0,0,0,0,0,0],"split_type":[0,0,0,0,0,0,0,0,0,0,0,0,0,0,0,0,0,0,0,0,0,0,0,0,0,0,0,0,0,0,0,0,0,0,0,0,0,0,0,0,0,0,0,0,0,0,0,0,0,0,0,0,0,0,0,0,0,0,0,0,0,0,0,0,0,0,0,0,0,0,0,0,0,0,0,0,0,0,0,0,0,0,0,0,0,0,0,0,0,0,0,0,0,0,0,0,0,0,0,0,0,0,0,0,0,0,0,0,0,0,0,0,0,0,0,0,0,0,0,0,0,0,0,0,0,0,0],"sum_hessian":[2.4017762E4,1.7176031E4,6.84173E3,1.0802563E4,6.3734688E3,5.129172E3,1.7125579E3,7.644879E3,3.1576843E3,3.783229E3,2.59024E3,3.2366147E3,1.8925574E3,7.2699274E2,9.8556506E2,6.0926455E3,1.5522335E3,3.0549102E3,1.0277428E2,3.4161558E3,3.6707306E2,2.0342659E3,5.5597406E2,1.5248973E3,1.7117174E3,1.4469164E3,4.456409E2,4.4602655E2,2.809662E2,3.6770038E2,6.178647E2,2.2805952E3,3.8120503E3,3.3470862E2,1.2175249E3,2.8635446E2,2.7685557E3,4.5626607E0,9.821162E1,3.392784E3,2.3371815E1,2.1966466E2,1.4740842E2,1.5336187E3,5.0064722E2,5.0236417E2,5.3609898E1,9.100294E0,1.515797E3,5.0454068E2,1.2071768E3,8.731129E2,5.738035E2,2.7986887E2,1.6577202E2,2.1623392E0,4.4386423E2,1.9711844E2,8.384773E1,2.347245E2,1.3297588E2,3.9392855E0,6.139254E2,1.5035579E3,7.7703735E2,8.1492615E2,2.997124E3,3.1506216E2,1.9646467E1,8.0588666E2,4.116382E2,2.830165E2,3.3379574E0,2.4096392E3,3.5891647E2,2.3988745E0,2.1637864E0,3.0708394E0,9.514078E1,1.1673885E3,2.2253955E3,2.3721116E0,2.0999704E1,2.0001645E2,1.9648201E1,2.964478E1,1.1776363E2,1.496966E3,3.665275E1,1.3833496E1,4.8681372E2,3.223632E2,1.8000098E2,8.956269E0,4.465363E1,5.5694633E0,3.5308306E0,6.5604266E2,8.5975433E2,5.000037E2,4.5369864E0,1.1301748E3,7.700195E1,3.2313922E2,5.499737E2,3.9384835E0,5.6986505E2,2.2065517E2,5.9213696E1,5.0201454E0,1.6075188E2,1.0490344E0,1.1133049E0,2.1191263E2,2.3195158E2,2.0220573E1,1.7689787E2,7.2514987E0,7.659623E1,1.7648272E1,2.1707623E2,2.4428213E0,1.3053305E2,1.1127837E0,2.8265018E0,1.19407776E2,4.9451764E2],"tree_param":{"num_deleted":"0","num_feature":"5","num_nodes":"127","size_leaf_vector":"1"}},{"base_weights":[9.407438E-2,3.9719287E-2,2.9118717E-1,7.686464E-3,1.5084551E-1,1.597575E-1,7.4346834E-1,-1.6015377E-2,5.4512147E-2,6.8071455E-2,2.8144285E-1,1.0987029E-1,3.115308E-1,5.6900024E-1,9.3225735E-1,-1.5575461E-1,-9.649205E-3,-2.679975E-2,8.3796486E-2,-2.685941E-2,9.4209336E-2,2.364493E-1,4.976899E-1,7.35489E-2,2.024388E-1,2.5986838E-1,5.815874E-1,4.0470347E-1,8.1698334E-1,7.754558E-1,1.0007261E0,1.977259E-1,-2.5660342E-1,-2.9177848E-2,2.398043E-2,-1.1737239E-2,-1.0781444E0,3.686006E-1,7.2950415E-2,-4.6149254E-1,1.4105412E-2,-7.564305E-2,1.16695516E-1,2.228727E-1,6.719629E-1,3.6331448E-1,6.4233243E-1,-1.2996018E-1,8.648291E-2,1.8341312E-1,6.2747926E-1,1.9258061E-1,3.534901E-1,2.1969771E-1,6.8615097E-1,-6.368302E-1,4.1598427E-1,6.738152E-1,9.624293E-1,5.570463E-1,9.4179904E-1,1.0033534E0,9.104088E-2,1.1234297E-1,-1.7745231E-1,-4.5162824E-1,-6.3930325E-2,-6.14465E-3,-6.8628535E-2,1.61952E-2,-1.7217712E-2,3.9720267E-2,-2.1136554E-2,-8.577016E-1,-1.8986908E-1,-8.203526E-2,1.3945542E-1,1.4093107E-2,4.8303172E-2,9.6606344E-2,-2.8613746E-1,1.028173E-2,-2.5895312E-1,-6.09198E-3,-3.011727E-1,5.9362716E-4,4.8657738E-2,6.0667694E-2,1.150058E-1,-4.6579763E-2,2.3146822E-1,-1.981032E-1,1.2135196E-1,5.1842738E-2,2.1136092E-1,6.159549E-2,-1.3410495E-1,8.243334E-2,1.9060409E-2,7.182116E-2,1.9727757E-2,2.0207724E-1,-1.3541703E-1,7.75075E-2,-1.7409623E-2,1.14680685E-1,-3.620814E-2,1.4145366E-2,2.1121974E-1,1.22616656E-1,2.2866392E-1,2.096526E-1,-6.9061756E-1,2.2016808E-1,1.0720623E-1,1.6447537E-1,2.690378E-1,8.959304E-2,2.9368454E-1,2.0379297E-1,-4.4239692E-2,2.8528857E-1,1.07973635E-1,2.194515E-1,3.033892E-1],"categories":[],"categories_nodes":[],"categories_segments":[],"categories_sizes":[],"default_left":[0,0,0,0,0,0,0,0,0,0,0,0,0,0,0,0,0,0,0,0,0,0,0,0,0,0,0,0,0,0,0,0,0,0,0,0,0,0,0,0,0,0,0,0,0,0,0,0,0,0,0,0,0,0,0,0,0,0,0,0,0,0,0,0,0,0,0,0,0,0,0,0,0,0,0,0,0,0,0,0,0,0,0,0,0,0,0,0,0,0,0,0,0,0,0,0,0,0,0,0,0,0,0,0,0,0,0,0,0,0,0,0,0,0,0,0,0,0,0,0,0,0,0,0,0],"id":8,"left_children":[1,3,5,7,9,11,13,15,17,19,21,23,25,27,29,31,33,35,37,39,41,43,45,47,49,51,53,55,57,59,61,63,65,67,69,71,73,75,77,79,81,83,85,87,89,91,93,95,97,99,101,103,105,107,109,111,113,115,117,119,121,123,-1,-1,-1,-1,-1,-1,-1,-1,-1,-1,-1,-1,-1,-1,-1,-1,-1,-1,-1,-1,-1,-1,-1,-1,-1,-1,-1,-1,-1,-1,-1,-1,-1,-1,-1,-1,-1,-1,-1,-1,-1,-1,-1,-1,-1,-1,-1,-1,-1,-1,-1,-1,-1,-1,-1,-1,-1,-1,-1,-1,-1,-1,-1],"loss_changes":[2.4875833E2,6.4789825E1,2.982057E2,1.5682787E1,4.4006104E1,2.9418411E1,3.668042E1,8.344737E0,1.1309746E1,6.19094E0,1.5251274E1,9.833591E0,1.3266983E1,2.3695587E1,5.0325317E0,1.4621165E1,5.894454E0,1.9911335E1,1.0758589E1,9.60716E0,7.4787025E0,7.592682E0,5.036766E0,5.552761E0,6.555397E0,5.0290413E0,5.662777E0,4.455715E0,4.224533E0,5.6110916E0,3.7902832E-1,1.29564705E1,1.6978899E1,9.849319E0,8.05361E0,1.0515859E1,1.2272743E1,8.027565E0,7.6883163E0,1.8233438E1,8.76503E0,1.17559395E1,9.016205E0,4.1350174E0,3.340414E0,6.2912292E0,3.6541176E0,1.3507709E1,8.538551E0,5.194628E0,2.0416603E0,7.8116875E0,4.6470833E0,2.968045E0,2.1937218E0,1.0988115E1,6.326046E0,2.903595E0,9.5495605E-1,6.60026E0,1.6116333E-1,6.2072754E-2,0E0,0E0,0E0,0E0,0E0,0E0,0E0,0E0,0E0,0E0,0E0,0E0,0E0,0E0,0E0,0E0,0E0,0E0,0E0,0E0,0E0,0E0,0E0,0E0,0E0,0E0,0E0,0E0,0E0,0E0,0E0,0E0,0E0,0E0,0E0,0E0,0E0,0E0,0E0,0E0,0E0,0E0,0E0,0E0,0E0,0E0,0E0,0E0,0E0,0E0,0E0,0E0,0E0,0E0,0E0,0E0,0E0,0E0,0E0,0E0,0E0,0E0,0E0],"parents":[2147483647,0,0,1,1,2,2,3,3,4,4,5,5,6,6,7,7,8,8,9,9,10,10,11,11,12,12,13,13,14,14,15,15,16,16,17,17,18,18,19,19,20,20,21,21,22,22,23,23,24,24,25,25,26,26,27,27,28,28,29,29,30,30,31,31,32,32,33,33,34,34,35,35,36,36,37,37,38,38,39,39,40,40,41,41,42,42,43,43,44,44,45,45,46,46,47,47,48,48,49,49,50,50,51,51,52,52,53,53,54,54,55,55,56,56,57,57,58,58,59,59,60,60,61,61],"right_children":[2,4,6,8,10,12,14,16,18,20,22,24,26,28,30,32,34,36,38,40,42,44,46,48,50,52,54,56,58,60,62,64,66,68,70,72,74,76,78,80,82,84,86,88,90,92,94,96,98,100,102,104,106,108,110,112,114,116,118,120,122,124,-1,-1,-1,-1,-1,-1,-1,-1,-1,-1,-1,-1,-1,-1,-1,-1,-1,-1,-1,-1,-1,-1,-1,-1,-1,-1,-1,-1,-1,-1,-1,-1,-1,-1,-1,-1,-1,-1,-1,-1,-1,-1,-1,-1,-1,-1,-1,-1,-1,-1,-1,-1,-1,-1,-1,-1,-1,-1,-1,-1,-1,-1,-1],"split_conditions":[1.330737E2,6.983668E-1,6.016279E-1,8.1424164E1,6.6015724E1,4.037022E-1,7.726838E-1,3.094121E-2,1.3104702E0,1.3496414E1,1.1742254E2,1.7812337E2,1.8523323E2,1.6656322E2,1.5089484E2,2.0168873E1,4.3566483E-1,1.2935456E0,1.4290843E0,7.256319E-1,3.6307953E1,9.8813367E-1,8.2848036E-1,1.294047E1,5.7991043E1,1.6111504E2,4.4391432E-1,2.485125E0,1.8209073E2,8.6382943E-1,4.9804487E0,3.8219295E0,1.5019692E1,4.1619784E-1,4.639562E1,8.0144035E1,1.7727448E-1,9.772878E-2,4.9447894E-1,1.6797806E0,5.8400333E1,4.6680713E0,2.441088E1,2.6672302E2,7.146557E1,1.7884773E-1,3.403385E1,1.1394732E1,1.7604378E1,3.2752752E0,4.751011E0,5.0503464E1,1.8365225E2,2.3984299E2,1.2734696E0,2.7482084E1,4.5480488E1,7.023858E-1,6.053324E-1,4.2942E0,4.941281E0,7.807883E-1,9.104088E-2,1.1234297E-1,-1.7745231E-1,-4.5162824E-1,-6.3930325E-2,-6.14465E-3,-6.8628535E-2,1.61952E-2,-1.7217712E-2,3.9720267E-2,-2.1136554E-2,-8.577016E-1,-1.8986908E-1,-8.203526E-2,1.3945542E-1,1.4093107E-2,4.8303172E-2,9.6606344E-2,-2.8613746E-1,1.028173E-2,-2.5895312E-1,-6.09198E-3,-3.011727E-1,5.9362716E-4,4.8657738E-2,6.0667694E-2,1.150058E-1,-4.6579763E-2,2.3146822E-1,-1.981032E-1,1.2135196E-1,5.1842738E-2,2.1136092E-1,6.159549E-2,-1.3410495E-1,8.243334E-2,1.9060409E-2,7.182116E-2,1.9727757E-2,2.0207724E-1,-1.3541703E-1,7.75075E-2,-1.7409623E-2,1.14680685E-1,-3.620814E-2,1.4145366E-2,2.1121974E-1,1.22616656E-1,2.2866392E-1,2.096526E-1,-6.9061756E-1,2.2016808E-1,1.0720623E-1,1.6447537E-1,2.690378E-1,8.959304E-2,2.9368454E-1,2.0379297E-1,-4.4239692E-2,2.8528857E-1,1.07973635E-1,2.194515E-1,3.033892E-1],"split_indices":[1,4,4,1,1,4,4,4,2,1,1,1,1,1,1,0,4,2,2,4,3,4,4,0,0,1,4,3,1,4,2,2,3,4,0,3,4,4,4,2,0,2,0,3,1,2,3,0,0,2,2,0,1,3,2,0,3,4,4,2,2,4,0,0,0,0,0,0,0,0,0,0,0,0,0,0,0,0,0,0,0,0,0,0,0,0,0,0,0,0,0,0,0,0,0,0,0,0,0,0,0,0,0,0,0,0,0,0,0,0,0,0,0,0,0,0,0,0,0,0,0,0,0,0,0],"split_type":[0,0,0,0,0,0,0,0,0,0,0,0,0,0,0,0,0,0,0,0,0,0,0,0,0,0,0,0,0,0,0,0,0,0,0,0,0,0,0,0,0,0,0,0,0,0,0,0,0,0,0,0,0,0,0,0,0,0,0,0,0,0,0,0,0,0,0,0,0,0,0,0,0,0,0,0,0,0,0,0,0,0,0,0,0,0,0,0,0,0,0,0,0,0,0,0,0,0,0,0,0,0,0,0,0,0,0,0,0,0,0,0,0,0,0,0,0,0,0,0,0,0,0,0,0],"sum_hessian":[2.3217963E4,1.8200312E4,5.01765E3,1.4128697E4,4.0716152E3,3.8889128E3,1.1287369E3,9.380972E3,4.7477256E3,2.4930276E3,1.5785876E3,2.9281626E3,9.607501E2,5.88704E2,5.4003296E2,4.0772955E2,8.973242E3,1.2571538E3,3.4905715E3,5.3822095E2,1.9548066E3,1.30844E3,2.701478E2,2.1042903E3,8.238724E2,8.081178E2,1.5263234E2,3.556839E2,2.3302005E2,1.6788417E2,3.721488E2,9.029169E1,3.1743787E2,5.6768447E3,3.296397E3,1.240394E3,1.675984E1,1.2684322E2,3.3637283E3,4.547454E1,4.9274643E2,2.2825885E2,1.7265477E3,1.2703501E3,3.8089844E1,1.4186476E2,1.2828305E2,1.2520561E2,1.9790847E3,7.899444E2,3.3928024E1,4.719645E2,3.3615326E2,3.4910343E1,1.1772199E2,3.216952E0,3.5246695E2,1.2026818E2,1.1275188E2,7.446287E1,9.342131E1,3.703145E2,1.8343031E0,7.419996E1,1.609173E1,9.554375E0,3.0788348E2,5.440893E3,2.3595192E2,2.40863E3,8.877673E2,3.5867648E2,8.817175E2,2.2678676E0,1.4491973E1,1.6296253E1,1.10546974E2,2.5987568E3,7.6497156E2,1.7680769E1,2.7793774E1,4.8261304E2,1.0133403E1,2.1638164E2,1.1877219E1,4.9059543E2,1.2359523E3,1.1275426E3,1.4280748E2,4.0331106E0,3.4056732E1,4.906364E0,1.3695839E2,1.5449131E1,1.12833916E2,6.1025364E1,6.4180244E1,2.1380408E2,1.7652806E3,5.3453015E2,2.5541425E2,3.2897614E1,1.0304112E0,3.7381836E2,9.814616E1,3.171018E2,1.9051458E1,2.6549837E1,8.360506E0,2.6702148E1,9.1019844E1,2.1071494E0,1.1098026E0,5.3088554E1,2.993784E2,7.915363E1,4.1114544E1,3.2011092E0,1.09550766E2,6.3481773E1,1.0981093E1,9.1348595E1,2.072712E0,1.3156831E1,3.5715768E2],"tree_param":{"num_deleted":"0","num_feature":"5","num_nodes":"125","size_leaf_vector":"1"}},{"base_weights":[6.9868885E-2,3.51207E-2,2.5909647E-1,1.3305319E-2,1.4787821E-1,1.4156069E-1,7.711298E-1,-4.884713E-3,6.33354E-2,9.074059E-2,4.5758235E-1,9.040367E-2,2.798492E-1,5.573718E-1,9.4932705E-1,-1.8441099E-3,-2.7253997E-1,3.3720184E-2,1.5692016E-1,3.6883116E-2,1.6281343E-1,3.7770793E-1,6.81916E-1,7.125629E-2,2.3991846E-1,2.2583134E-1,5.1127946E-1,4.0554854E-1,9.207453E-1,7.9490685E-1,9.958019E-1,-3.0858422E-2,2.9272093E-2,-1.5093398E-1,-1.0847652E0,1.1918044E-2,1.8863533E-1,-5.0477356E-1,1.6682914E-1,-2.0191365E-1,5.3204734E-2,1.3370298E-1,3.3159032E-1,3.3986235E-1,8.316743E-1,4.5832983E-1,9.004849E-1,1.01249814E-1,-1.7440604E-2,-4.141818E-1,2.5886917E-1,2.4916497E-1,-1.4005652E-1,2.6469794E-1,6.2894136E-1,-2.551488E-1,4.1942593E-1,7.8582466E-2,9.305041E-1,3.7108886E-1,9.3433714E-1,4.0225738E-1,2.9981825E-1,2.649493E-2,-1.2476803E-2,-1.2636414E-1,9.826471E-3,-4.97098E-1,-3.321405E-2,-6.7427427E-1,-6.559546E-2,5.548548E-3,-1.6392061E-1,7.128434E-2,-1.9920327E-1,2.2963424E-1,-2.503127E-1,6.840889E-2,1.5948435E-2,-1.9862436E-1,2.4191251E-2,2.065952E-2,-5.869806E-2,1.0652206E-2,5.3346038E-2,1.3414209E-1,2.9686358E-2,1.3405843E-1,7.3558174E-2,-5.963773E-2,2.6986572E-1,1.5617111E-1,-2.8817618E-1,2.3537125E-2,2.743998E-1,-5.135783E-2,3.678863E-2,-1.8403734E-1,5.548051E-3,-4.2406055E-3,1.04591995E-1,-4.6172165E-3,8.261635E-2,-2.4859962E-1,7.3892675E-2,2.1004789E-1,1.8268133E-2,4.6877626E-2,2.0335312E-1,2.5845164E-1,1.0738061E-1,2.8211626E-1,1.0744575E-1,-4.9028955E-2,1.90497E-1,2.8458077E-1,1.8416414E-2,1.7036907E-1,5.2257306E-3],"categories":[],"categories_nodes":[],"categories_segments":[],"categories_sizes":[],"default_left":[0,0,0,0,0,0,0,0,0,0,0,0,0,0,0,0,0,0,0,0,0,0,0,0,0,0,0,0,0,0,0,0,0,0,0,0,0,0,0,0,0,0,0,0,0,0,0,0,0,0,0,0,0,0,0,0,0,0,0,0,0,0,0,0,0,0,0,0,0,0,0,0,0,0,0,0,0,0,0,0,0,0,0,0,0,0,0,0,0,0,0,0,0,0,0,0,0,0,0,0,0,0,0,0,0,0,0,0,0,0,0,0,0,0,0,0,0,0,0],"id":9,"left_children":[1,3,5,7,9,11,13,15,17,19,21,23,25,27,29,31,33,35,37,39,41,43,45,47,49,51,53,55,57,59,61,63,65,67,69,71,73,75,77,79,81,83,85,87,89,91,93,95,97,-1,99,101,103,105,107,-1,109,-1,111,113,115,117,-1,-1,-1,-1,-1,-1,-1,-1,-1,-1,-1,-1,-1,-1,-1,-1,-1,-1,-1,-1,-1,-1,-1,-1,-1,-1,-1,-1,-1,-1,-1,-1,-1,-1,-1,-1,-1,-1,-1,-1,-1,-1,-1,-1,-1,-1,-1,-1,-1,-1,-1,-1,-1,-1,-1,-1,-1],"loss_changes":[1.4885358E2,4.705101E1,2.1126364E2,1.4587146E1,5.4829033E1,2.0191544E1,2.4438751E1,9.566704E0,1.1839979E1,1.01602955E1,8.391983E0,5.959097E0,9.525753E0,1.6200699E1,1.7637329E0,1.049585E1,1.2878049E1,1.0967147E1,6.818617E0,5.8580084E0,5.4575233E0,5.871666E0,5.720463E0,4.92859E0,7.622287E0,5.3884163E0,4.044857E0,4.081318E0,3.203888E-1,4.813614E0,1.7306519E-1,7.6972766E0,8.815151E0,6.8436046E0,1.666298E1,1.0469006E1,1.6888573E1,7.0871944E0,7.0327396E0,1.2559959E1,5.489394E0,4.138483E0,4.365761E0,3.2568398E0,2.05855E0,6.1588516E0,6.5595627E-1,8.082782E0,1.0052869E1,0E0,5.7562113E0,4.096119E0,1.0375934E1,4.2719254E0,2.1486702E0,0E0,5.455017E0,0E0,1.5009308E-1,3.387091E0,7.518234E-1,2.002247E-1,0E0,0E0,0E0,0E0,0E0,0E0,0E0,0E0,0E0,0E0,0E0,0E0,0E0,0E0,0E0,0E0,0E0,0E0,0E0,0E0,0E0,0E0,0E0,0E0,0E0,0E0,0E0,0E0,0E0,0E0,0E0,0E0,0E0,0E0,0E0,0E0,0E0,0E0,0E0,0E0,0E0,0E0,0E0,0E0,0E0,0E0,0E0,0E0,0E0,0E0,0E0,0E0,0E0,0E0,0E0,0E0,0E0],"parents":[2147483647,0,0,1,1,2,2,3,3,4,4,5,5,6,6,7,7,8,8,9,9,10,10,11,11,12,12,13,13,14,14,15,15,16,16,17,17,18,18,19,19,20,20,21,21,22,22,23,23,24,24,25,25,26,26,27,27,28,28,29,29,30,30,31,31,32,32,33,33,34,34,35,35,36,36,37,37,38,38,39,39,40,40,41,41,42,42,43,43,44,44,45,45,46,46,47,47,48,48,50,50,51,51,52,52,53,53,54,54,56,56,58,58,59,59,60,60,61,61],"right_children":[2,4,6,8,10,12,14,16,18,20,22,24,26,28,30,32,34,36,38,40,42,44,46,48,50,52,54,56,58,60,62,64,66,68,70,72,74,76,78,80,82,84,86,88,90,92,94,96,98,-1,100,102,104,106,108,-1,110,-1,112,114,116,118,-1,-1,-1,-1,-1,-1,-1,-1,-1,-1,-1,-1,-1,-1,-1,-1,-1,-1,-1,-1,-1,-1,-1,-1,-1,-1,-1,-1,-1,-1,-1,-1,-1,-1,-1,-1,-1,-1,-1,-1,-1,-1,-1,-1,-1,-1,-1,-1,-1,-1,-1,-1,-1,-1,-1,-1,-1],"split_conditions":[1.4626169E2,7.6161283E-1,6.092142E-1,9.772793E1,1.0414037E2,3.853653E-1,7.454621E-1,7.4939424E-1,5.062662E-1,5.024734E1,1.3149416E2,1.9312398E2,1.8608412E2,1.7812337E2,1.5797652E2,3.6218572E-1,2.5244305E2,2.6438324E2,5.8735847E0,1.3697715E1,5.2647804E1,9.7631377E-1,8.6382943E-1,2.2451671E2,1.0394611E1,2.7966443E2,4.4391432E-1,1.2590132E0,3.6774125E0,8.008951E-1,1.0394611E1,3.924757E-1,7.9653865E-1,1.7884773E-1,3.698642E1,1.4541579E2,4.687583E0,7.4389195E-1,1.9358495E2,2.1538365E0,5.6796688E1,8.2848036E-1,5.7387047E1,3.3800903E1,1.3893732E1,8.5991347E-1,4.6583576E0,3.5619515E-1,1.3144521E1,-4.141818E-1,7.5384865E1,2.695794E1,3.280101E1,4.005922E-1,5.265968E-1,-2.551488E-1,3.860707E1,7.8582466E-2,2.9501053E2,1.057042E2,4.922676E0,1.3490486E2,2.9981825E-1,2.649493E-2,-1.2476803E-2,-1.2636414E-1,9.826471E-3,-4.97098E-1,-3.321405E-2,-6.7427427E-1,-6.559546E-2,5.548548E-3,-1.6392061E-1,7.128434E-2,-1.9920327E-1,2.2963424E-1,-2.503127E-1,6.840889E-2,1.5948435E-2,-1.9862436E-1,2.4191251E-2,2.065952E-2,-5.869806E-2,1.0652206E-2,5.3346038E-2,1.3414209E-1,2.9686358E-2,1.3405843E-1,7.3558174E-2,-5.963773E-2,2.6986572E-1,1.5617111E-1,-2.8817618E-1,2.3537125E-2,2.743998E-1,-5.135783E-2,3.678863E-2,-1.8403734E-1,5.548051E-3,-4.2406055E-3,1.04591995E-1,-4.6172165E-3,8.261635E-2,-2.4859962E-1,7.3892675E-2,2.1004789E-1,1.8268133E-2,4.6877626E-2,2.0335312E-1,2.5845164E-1,1.0738061E-1,2.8211626E-1,1.0744575E-1,-4.9028955E-2,1.90497E-1,2.8458077E-1,1.8416414E-2,1.7036907E-1,5.2257306E-3],"split_indices":[1,4,4,1,1,4,4,4,4,1,1,1,1,1,1,4,3,3,3,0,0,4,4,3,0,3,4,3,3,4,0,2,1,2,1,1,2,2,3,2,0,4,0,0,0,4,3,2,0,0,3,3,0,4,2,0,3,0,3,3,2,3,0,0,0,0,0,0,0,0,0,0,0,0,0,0,0,0,0,0,0,0,0,0,0,0,0,0,0,0,0,0,0,0,0,0,0,0,0,0,0,0,0,0,0,0,0,0,0,0,0,0,0,0,0,0,0,0,0],"split_type":[0,0,0,0,0,0,0,0,0,0,0,0,0,0,0,0,0,0,0,0,0,0,0,0,0,0,0,0,0,0,0,0,0,0,0,0,0,0,0,0,0,0,0,0,0,0,0,0,0,0,0,0,0,0,0,0,0,0,0,0,0,0,0,0,0,0,0,0,0,0,0,0,0,0,0,0,0,0,0,0,0,0,0,0,0,0,0,0,0,0,0,0,0,0,0,0,0,0,0,0,0,0,0,0,0,0,0,0,0,0,0,0,0,0,0,0,0,0,0],"sum_hessian":[2.2638623E4,1.9127408E4,3.5112131E3,1.6027634E4,3.099775E3,2.8567344E3,6.544787E2,1.17547295E4,4.272905E3,2.6180596E3,4.8171536E2,2.086522E3,7.7021265E2,2.9942673E2,3.5505197E2,1.1623689E4,1.3103993E2,3.246803E3,1.0261014E3,1.4992413E3,1.1188182E3,3.5721277E2,1.2450259E2,1.8509584E3,2.3556349E2,6.2606036E2,1.4415224E2,2.126812E2,8.6745544E1,8.632556E1,2.687264E2,6.015005E3,5.6086846E3,1.1500697E2,1.6032965E1,2.8471794E3,3.9962372E2,1.4402497E1,1.011699E3,9.518895E1,1.4040524E3,9.557617E2,1.6305647E2,3.3133887E2,2.5873915E1,6.307581E1,6.1426773E1,1.3831084E3,4.6785E2,1.8923395E0,2.3367116E2,5.888283E2,3.7232094E1,4.761537E1,9.653686E1,1.6653336E0,2.1101587E2,1.6725916E0,8.507295E1,2.2276001E1,6.404956E1,2.296241E0,2.6643018E2,4.9627475E2,5.51873E3,4.2109196E1,5.5665757E3,1.9458724E0,1.130611E2,6.1633015E0,9.869663E0,2.814985E3,3.2194183E1,3.7859705E2,2.1026682E1,2.694827E0,1.170767E1,6.5696985E2,3.547291E2,3.5701565E1,5.948739E1,1.3216106E3,8.2441734E1,2.9684683E2,6.589149E2,1.0832802E2,5.4728462E1,1.5379344E2,1.7754541E2,1.4798234E0,2.4394093E1,6.1031784E1,2.0440252E0,1.1524975E0,6.0274277E1,1.0012742E2,1.282981E3,2.5689083E1,4.4216095E2,5.8031727E1,1.7563942E2,5.31387E1,5.356896E2,1.2970444E1,2.426165E1,1.4403797E1,3.3211575E1,9.444365E0,8.70925E1,2.4178303E1,1.8683755E2,8.2996735E1,2.0762184E0,7.488708E0,1.47872925E1,6.293445E1,1.1151139E0,1.2727542E0,1.023487E0],"tree_param":{"num_deleted":"0","num_feature":"5","num_nodes":"119","size_leaf_vector":"1"}},{"base_weights":[5.1552005E-2,2.3488835E-2,1.9400844E-1,4.2648287E-3,9.5780924E-2,1.1969877E-1,8.259242E-1,-3.5452493E-2,1.9537546E-2,7.0176944E-2,3.990575E-1,8.565283E-2,3.504991E-1,6.2942857E-1,9.759666E-1,-2.7963307E-2,-3.1328133E-1,6.519351E-2,2.0421739E-3,3.774415E-2,1.3719739E-1,4.5200145E-1,-2.444403E-1,2.4551623E-2,1.4659537E-1,2.520199E-1,7.8063357E-1,3.4737432E-1,8.7542707E-1,7.4045515E-1,2.9933578E-1,1.6752422E-2,-6.928806E-2,-1.6522263E-1,-1.2150705E0,-1.1537325E-2,1.2662745E-1,-6.671192E-2,2.398938E-2,4.8858323E-3,1.0024267E-1,1.2628743E-1,5.526934E-1,3.3667216E-1,5.9818727E-1,-5.94134E-1,6.7896643E-3,1.668215E-1,-1.5501519E-2,1.2674527E-1,3.0594218E-1,2.7921176E-1,-4.081486E-1,8.122711E-1,-7.423377E-2,2.5576743E-1,7.030876E-1,8.9467317E-1,1.0028538E-1,-8.847649E-2,8.18894E-1,-5.4025676E-2,1.367376E-2,-8.348901E-2,-8.692424E-3,-1.5228245E-1,5.224466E-2,-7.284652E-2,-7.541745E-1,-1.5690655E-2,3.7144948E-2,7.482207E-2,2.593278E-2,-5.503596E-2,-1.9866307E-3,1.1844843E-2,-1.8381E-2,-5.3727543E-3,8.2700744E-2,-1.20838046E-1,3.6742765E-2,3.149098E-2,7.529539E-2,-5.161097E-2,2.0131446E-1,6.859809E-2,1.6482198E-1,9.36269E-2,1.9290102E-1,-2.5472742E-1,1.02836736E-1,1.9315511E-1,3.567065E-2,-1.4371976E-2,4.7208294E-2,-1.9893885E-2,4.3239288E-2,1.5742756E-1,3.9804026E-2,1.2870757E-1,6.193086E-2,-6.800256E-1,-2.0513806E-2,1.6869053E-1,2.657859E-1,1.7286627E-1,-2.0385124E-1,1.14657E-1,-1.10762276E-1,2.3662329E-1,6.492191E-2,2.1510707E-1,2.920566E-1,1.6776127E-1,-1.331479E-1,2.7138036E-1,-2.9468266E-3],"categories":[],"categories_nodes":[],"categories_segments":[],"categories_sizes":[],"default_left":[0,0,0,0,0,0,0,0,0,0,0,0,0,0,0,0,0,0,0,0,0,0,0,0,0,0,0,0,0,0,0,0,0,0,0,0,0,0,0,0,0,0,0,0,0,0,0,0,0,0,0,0,0,0,0,0,0,0,0,0,0,0,0,0,0,0,0,0,0,0,0,0,0,0,0,0,0,0,0,0,0,0,0,0,0,0,0,0,0,0,0,0,0,0,0,0,0,0,0,0,0,0,0,0,0,0,0,0,0,0,0,0,0,0,0,0,0],"id":10,"left_children":[1,3,5,7,9,11,13,15,17,19,21,23,25,27,29,31,33,35,37,39,41,43,45,47,49,51,53,55,57,59,-1,61,63,65,67,69,71,73,75,77,79,81,83,85,87,-1,89,91,93,95,97,99,101,103,105,107,109,111,113,-1,115,-1,-1,-1,-1,-1,-1,-1,-1,-1,-1,-1,-1,-1,-1,-1,-1,-1,-1,-1,-1,-1,-1,-1,-1,-1,-1,-1,-1,-1,-1,-1,-1,-1,-1,-1,-1,-1,-1,-1,-1,-1,-1,-1,-1,-1,-1,-1,-1,-1,-1,-1,-1,-1,-1,-1,-1],"loss_changes":[8.882367E1,2.5798492E1,1.7160608E2,8.896536E0,3.0251865E1,2.5688797E1,1.0724213E1,8.466889E0,8.461104E0,7.81374E0,1.0446072E1,1.062225E1,1.7612095E1,1.1444908E1,3.7242126E-1,7.332781E0,1.406212E1,1.3834809E1,1.1559116E1,4.980382E0,5.2460155E0,4.530365E0,1.03548355E1,8.129277E0,4.479496E0,6.281563E0,2.1657372E0,2.444705E0,1.2497787E0,2.045557E0,0E0,1.0825668E1,1.7367565E1,1.0884857E1,1.8215199E1,7.2112665E0,8.019848E0,1.3001672E1,7.6727924E0,9.823709E0,9.396041E0,3.0146008E0,2.663643E0,3.531847E0,1.3697891E0,0E0,6.5344095E0,7.0870657E0,6.2464137E0,4.278721E0,5.9026012E0,3.5156517E0,8.684698E0,8.860016E-1,1.8460557E0,5.325783E0,4.930792E-1,5.274277E-1,1.0726095E0,0E0,1.4943447E0,0E0,0E0,0E0,0E0,0E0,0E0,0E0,0E0,0E0,0E0,0E0,0E0,0E0,0E0,0E0,0E0,0E0,0E0,0E0,0E0,0E0,0E0,0E0,0E0,0E0,0E0,0E0,0E0,0E0,0E0,0E0,0E0,0E0,0E0,0E0,0E0,0E0,0E0,0E0,0E0,0E0,0E0,0E0,0E0,0E0,0E0,0E0,0E0,0E0,0E0,0E0,0E0,0E0,0E0,0E0,0E0],"parents":[2147483647,0,0,1,1,2,2,3,3,4,4,5,5,6,6,7,7,8,8,9,9,10,10,11,11,12,12,13,13,14,14,15,15,16,16,17,17,18,18,19,19,20,20,21,21,22,22,23,23,24,24,25,25,26,26,27,27,28,28,29,29,31,31,32,32,33,33,34,34,35,35,36,36,37,37,38,38,39,39,40,40,41,41,42,42,43,43,44,44,46,46,47,47,48,48,49,49,50,50,51,51,52,52,53,53,54,54,55,55,56,56,57,57,58,58,60,60],"right_children":[2,4,6,8,10,12,14,16,18,20,22,24,26,28,30,32,34,36,38,40,42,44,46,48,50,52,54,56,58,60,-1,62,64,66,68,70,72,74,76,78,80,82,84,86,88,-1,90,92,94,96,98,100,102,104,106,108,110,112,114,-1,116,-1,-1,-1,-1,-1,-1,-1,-1,-1,-1,-1,-1,-1,-1,-1,-1,-1,-1,-1,-1,-1,-1,-1,-1,-1,-1,-1,-1,-1,-1,-1,-1,-1,-1,-1,-1,-1,-1,-1,-1,-1,-1,-1,-1,-1,-1,-1,-1,-1,-1,-1,-1,-1,-1,-1,-1],"split_conditions":[1.4159329E2,6.983668E-1,7.023858E-1,3.3881886E1,1.1742254E2,5.403803E-1,1.6269666E2,5.8400333E1,8.129193E1,6.6015724E1,4.5891247E0,2.1989E-1,1.8209073E2,8.008951E-1,7.256319E-1,2.3663642E0,2.4904286E2,2.2531903E0,1.3615903E2,4.2961014E1,9.8813367E-1,8.2848036E-1,1.1964223E2,1.0006652E0,1.9157065E2,6.94475E-1,5.7991043E1,4.016477E0,4.9037495E0,1.6491994E2,2.9933578E-1,1.741814E1,2.835976E0,2.722299E0,1.896627E1,5.0226146E-1,2.910101E0,2.0748675E-1,4.1967726E0,4.64835E0,2.4026887E0,2.5482886E2,7.146557E1,1.3224945E2,7.018973E-1,-5.94134E-1,7.575528E-1,1.4462471E2,1.8910263E2,2.565252E1,1.2700807E2,9.410145E1,1.4857468E2,5.709175E-1,1.7188371E0,3.4052765E0,4.729531E0,8.6382943E-1,2.6685444E1,-8.847649E-2,5.456359E1,-5.4025676E-2,1.367376E-2,-8.348901E-2,-8.692424E-3,-1.5228245E-1,5.224466E-2,-7.284652E-2,-7.541745E-1,-1.5690655E-2,3.7144948E-2,7.482207E-2,2.593278E-2,-5.503596E-2,-1.9866307E-3,1.1844843E-2,-1.8381E-2,-5.3727543E-3,8.2700744E-2,-1.20838046E-1,3.6742765E-2,3.149098E-2,7.529539E-2,-5.161097E-2,2.0131446E-1,6.859809E-2,1.6482198E-1,9.36269E-2,1.9290102E-1,-2.5472742E-1,1.02836736E-1,1.9315511E-1,3.567065E-2,-1.4371976E-2,4.7208294E-2,-1.9893885E-2,4.3239288E-2,1.5742756E-1,3.9804026E-2,1.2870757E-1,6.193086E-2,-6.800256E-1,-2.0513806E-2,1.6869053E-1,2.657859E-1,1.7286627E-1,-2.0385124E-1,1.14657E-1,-1.10762276E-1,2.3662329E-1,6.492191E-2,2.1510707E-1,2.920566E-1,1.6776127E-1,-1.331479E-1,2.7138036E-1,-2.9468266E-3],"split_indices":[1,4,4,1,1,4,1,0,3,1,2,4,1,4,4,2,3,2,3,0,4,4,1,2,1,4,0,2,2,1,0,0,2,2,1,4,2,4,2,2,1,3,1,1,2,0,4,1,1,3,3,3,1,4,2,2,2,4,0,0,0,0,0,0,0,0,0,0,0,0,0,0,0,0,0,0,0,0,0,0,0,0,0,0,0,0,0,0,0,0,0,0,0,0,0,0,0,0,0,0,0,0,0,0,0,0,0,0,0,0,0,0,0,0,0,0,0],"split_type":[0,0,0,0,0,0,0,0,0,0,0,0,0,0,0,0,0,0,0,0,0,0,0,0,0,0,0,0,0,0,0,0,0,0,0,0,0,0,0,0,0,0,0,0,0,0,0,0,0,0,0,0,0,0,0,0,0,0,0,0,0,0,0,0,0,0,0,0,0,0,0,0,0,0,0,0,0,0,0,0,0,0,0,0,0,0,0,0,0,0,0,0,0,0,0,0,0,0,0,0,0,0,0,0,0,0,0,0,0,0,0,0,0,0,0,0,0],"sum_hessian":[2.2218393E4,1.8562785E4,3.6556064E3,1.4664297E4,3.8984895E3,3.2720244E3,3.835819E2,4.072437E3,1.0591859E4,3.59612E3,3.023693E2,2.852601E3,4.194233E2,1.6833078E2,2.1525114E2,3.9666133E3,1.0582386E2,2.933601E3,7.6582583E3,2.4244392E3,1.171681E3,2.7965796E2,2.2711344E1,1.425147E3,1.4274542E3,3.4257645E2,7.684688E1,7.954223E1,8.878855E1,2.121358E1,1.9403757E2,1.9054274E3,2.0611858E3,9.191601E1,1.3907854E1,1.304765E3,1.628836E3,1.8525931E3,5.8056655E3,1.5897261E3,8.347132E2,1.1429731E3,2.870786E1,1.5817397E2,1.2148399E2,2.0010474E0,2.0710297E1,3.123843E2,1.1127627E3,1.270928E3,1.5652629E2,3.2957843E2,1.2998021E1,7.415242E1,2.694458E0,6.461973E1,1.4922497E1,8.6486946E1,2.3016005E0,1.299574E0,1.9914005E1,2.4273204E2,1.6626953E3,3.3232236E2,1.7288634E3,4.5508053E1,4.640795E1,8.632761E0,5.2750936E0,1.0032325E3,3.015325E2,4.0036566E2,1.2284703E3,6.288409E2,1.2237522E3,4.9133438E3,8.923214E2,1.4671525E3,1.225736E2,3.4606625E1,8.0010657E2,9.7767694E2,1.6529616E2,3.9664211E0,2.474144E1,1.0628476E2,5.1889206E1,1.7531294E1,1.039527E2,5.407888E0,1.5302408E1,2.7380444E1,2.8500385E2,9.377024E2,1.7506027E2,1.0476439E2,1.1661636E3,6.827352E1,8.825277E1,1.06155304E2,2.2342311E2,1.1323582E0,1.1865663E1,1.8846445E1,5.5305973E1,1.3218857E0,1.3725723E0,5.407058E1,1.0549151E1,1.2161411E1,2.7610853E0,2.9689308E1,5.679764E1,1.233497E0,1.0681033E0,1.7964518E1,1.949487E0],"tree_param":{"num_deleted":"0","num_feature":"5","num_nodes":"117","size_leaf_vector":"1"}},{"base_weights":[3.7907105E-2,1.0367034E-2,1.2530656E-1,3.9384384E-3,1.1681691E-1,7.406369E-2,5.91689E-1,2.4361405E-1,1.7708534E-3,5.101504E-1,1.0190231E-1,4.4709053E-2,1.9277528E-1,4.156114E-1,8.961646E-1,2.8285867E-1,-5.9635365E-1,-8.840899E-2,6.8932488E-3,-4.96955E-2,7.6546156E-1,-6.64993E-1,1.1173303E-1,-2.3826474E-2,6.506076E-2,1.5209045E-1,6.3219607E-1,2.4585973E-1,6.568336E-1,-4.7220233E-1,9.2606384E-1,2.2469656E-1,1.043712E0,-8.168238E-2,-6.581433E-1,-5.690839E-3,4.3912817E-2,-3.8892323E-1,2.6873213E-1,8.384648E-1,-8.0146365E-2,-6.628006E-1,2.2968095E-2,-1.6870725E-1,1.3914067E-1,-6.3690734E-1,-1.7109074E-2,-1.6881011E-1,7.5228594E-2,5.960843E-1,1.422858E-1,4.8823482E-1,8.4401757E-1,2.6657584E-1,-9.5493686E-1,4.928185E-1,8.572186E-1,-1.2156245E0,1.853204E-1,6.698137E-1,9.7958785E-1,2.3714264E-1,4.931089E-2,3.4731472E-1,7.319775E-2,-3.2444455E-2,1.3005726E-1,-3.5715336E-4,-5.5288758E-2,-3.3954874E-2,1.7260961E-2,2.5088075E-1,-4.4546157E-2,6.149725E-2,2.6057568E-1,2.6146752E-1,-1.9356969E-1,2.1506341E-2,-2.7892783E-1,2.9119572E-2,8.1460685E-2,-3.3919604E-3,-5.707901E-1,-4.554805E-1,-3.4375627E-2,5.4418597E-2,1.773044E-2,-1.06793605E-1,2.186686E-1,-4.959359E-2,4.9793035E-2,1.6224761E-1,-7.647463E-2,1.668212E-2,2.615056E-1,8.696933E-2,-2.4255893E-1,-5.444614E-1,1.5801795E-1,7.6142936E-3,1.713664E-1,1.6277127E-1,2.882454E-1,2.0929512E-2,-5.903117E-1,7.377356E-2,2.4430682E-1,5.202818E-2,2.9579416E-1],"categories":[],"categories_nodes":[],"categories_segments":[],"categories_sizes":[],"default_left":[0,0,0,0,0,0,0,0,0,0,0,0,0,0,0,0,0,0,0,0,0,0,0,0,0,0,0,0,0,0,0,0,0,0,0,0,0,0,0,0,0,0,0,0,0,0,0,0,0,0,0,0,0,0,0,0,0,0,0,0,0,0,0,0,0,0,0,0,0,0,0,0,0,0,0,0,0,0,0,0,0,0,0,0,0,0,0,0,0,0,0,0,0,0,0,0,0,0,0,0,0,0,0,0,0,0,0,0,0],"id":11,"left_children":[1,3,5,7,9,11,13,15,17,19,21,23,25,27,29,31,-1,33,35,37,39,41,43,45,47,49,51,53,55,57,59,61,63,65,-1,67,69,-1,71,73,-1,-1,75,77,79,-1,81,83,85,87,89,91,93,95,97,99,101,103,-1,105,107,-1,-1,-1,-1,-1,-1,-1,-1,-1,-1,-1,-1,-1,-1,-1,-1,-1,-1,-1,-1,-1,-1,-1,-1,-1,-1,-1,-1,-1,-1,-1,-1,-1,-1,-1,-1,-1,-1,-1,-1,-1,-1,-1,-1,-1,-1,-1,-1],"loss_changes":[5.2734356E1,1.1400973E1,1.2541304E2,8.162778E0,5.514223E0,1.6477564E1,2.7480652E1,1.2894736E1,7.1944623E0,4.957011E0,6.9757204E0,5.293955E0,1.6666561E1,1.3393932E1,8.190201E0,5.9284325E0,0E0,1.1676253E1,6.8656487E0,5.000176E0,2.010334E0,1.2513119E1,6.9770594E0,1.2224462E1,6.9702673E0,3.6567192E0,2.0012016E0,5.1278286E0,4.051857E0,4.5708714E0,1.891983E0,4.3294163E0,5.9419155E-1,1.1439091E1,0E0,8.840816E0,8.008431E0,0E0,2.530416E0,2.4884701E-1,0E0,0E0,5.724936E0,1.4885088E1,4.56763E0,0E0,9.472095E0,8.768879E0,4.7912893E0,2.5678864E0,6.165039E0,2.0720377E0,6.2011147E-1,5.082676E0,5.46719E0,2.8153E0,1.4319954E0,3.172402E0,0E0,1.9603386E0,6.098633E-1,0E0,0E0,0E0,0E0,0E0,0E0,0E0,0E0,0E0,0E0,0E0,0E0,0E0,0E0,0E0,0E0,0E0,0E0,0E0,0E0,0E0,0E0,0E0,0E0,0E0,0E0,0E0,0E0,0E0,0E0,0E0,0E0,0E0,0E0,0E0,0E0,0E0,0E0,0E0,0E0,0E0,0E0,0E0,0E0,0E0,0E0,0E0,0E0],"parents":[2147483647,0,0,1,1,2,2,3,3,4,4,5,5,6,6,7,7,8,8,9,9,10,10,11,11,12,12,13,13,14,14,15,15,17,17,18,18,19,19,20,20,21,21,22,22,23,23,24,24,25,25,26,26,27,27,28,28,29,29,30,30,31,31,32,32,33,33,35,35,36,36,38,38,39,39,42,42,43,43,44,44,46,46,47,47,48,48,49,49,50,50,51,51,52,52,53,53,54,54,55,55,56,56,57,57,59,59,60,60],"right_children":[2,4,6,8,10,12,14,16,18,20,22,24,26,28,30,32,-1,34,36,38,40,42,44,46,48,50,52,54,56,58,60,62,64,66,-1,68,70,-1,72,74,-1,-1,76,78,80,-1,82,84,86,88,90,92,94,96,98,100,102,104,-1,106,108,-1,-1,-1,-1,-1,-1,-1,-1,-1,-1,-1,-1,-1,-1,-1,-1,-1,-1,-1,-1,-1,-1,-1,-1,-1,-1,-1,-1,-1,-1,-1,-1,-1,-1,-1,-1,-1,-1,-1,-1,-1,-1,-1,-1,-1,-1,-1,-1],"split_conditions":[1.2133151E2,9.105514E-1,6.983668E-1,1.0394611E1,8.285414E0,4.745002E-1,1.5877939E2,2.89057E2,4.269507E-2,3.6774125E0,7.9653865E-1,8.62312E-2,1.8523323E2,8.246584E-1,7.023858E-1,2.763429E2,-5.9635365E-1,2.975065E2,4.7581028E1,9.419553E-1,5.3241547E1,3.3800903E1,3.511734E1,1.0189504E1,2.0063974E-1,9.885837E-2,5.860537E-1,5.921738E1,1.3939777E2,1.7432765E2,7.411955E-1,4.6547983E-2,6.2873816E-1,2.8670206E2,-6.581433E-1,4.6588665E1,8.197182E0,-3.8892323E-1,9.6828E-1,8.197182E0,-8.0146365E-2,-6.628006E-1,4.489865E-1,2.8115662E1,7.674658E1,-6.3690734E-1,4.960573E0,1.0198266E-1,1.6071106E1,3.1554688E1,4.1016135E-1,5.6796688E1,7.090019E0,2.9501053E2,7.6161283E-1,3.403385E1,8.6382943E-1,1.16052895E2,1.853204E-1,1.6491994E2,1.0394611E1,2.3714264E-1,4.931089E-2,3.4731472E-1,7.319775E-2,-3.2444455E-2,1.3005726E-1,-3.5715336E-4,-5.5288758E-2,-3.3954874E-2,1.7260961E-2,2.5088075E-1,-4.4546157E-2,6.149725E-2,2.6057568E-1,2.6146752E-1,-1.9356969E-1,2.1506341E-2,-2.7892783E-1,2.9119572E-2,8.1460685E-2,-3.3919604E-3,-5.707901E-1,-4.554805E-1,-3.4375627E-2,5.4418597E-2,1.773044E-2,-1.06793605E-1,2.186686E-1,-4.959359E-2,4.9793035E-2,1.6224761E-1,-7.647463E-2,1.668212E-2,2.615056E-1,8.696933E-2,-2.4255893E-1,-5.444614E-1,1.5801795E-1,7.6142936E-3,1.713664E-1,1.6277127E-1,2.882454E-1,2.0929512E-2,-5.903117E-1,7.377356E-2,2.4430682E-1,5.202818E-2,2.9579416E-1],"split_indices":[1,4,4,0,3,4,1,3,4,3,1,4,1,4,4,3,0,3,0,4,0,0,3,0,2,2,4,0,1,1,4,4,4,3,0,0,1,0,4,1,0,0,2,3,1,0,2,4,0,3,2,0,3,3,4,3,4,3,0,1,0,0,0,0,0,0,0,0,0,0,0,0,0,0,0,0,0,0,0,0,0,0,0,0,0,0,0,0,0,0,0,0,0,0,0,0,0,0,0,0,0,0,0,0,0,0,0,0,0],"split_type":[0,0,0,0,0,0,0,0,0,0,0,0,0,0,0,0,0,0,0,0,0,0,0,0,0,0,0,0,0,0,0,0,0,0,0,0,0,0,0,0,0,0,0,0,0,0,0,0,0,0,0,0,0,0,0,0,0,0,0,0,0,0,0,0,0,0,0,0,0,0,0,0,0,0,0,0,0,0,0,0,0,0,0,0,0,0,0,0,0,0,0,0,0,0,0,0,0,0,0,0,0,0,0,0,0,0,0,0,0],"sum_hessian":[2.1908402E4,1.6659893E4,5.2485093E3,1.5712065E4,9.478276E2,4.7299717E3,5.185378E2,1.3982526E2,1.557224E4,3.341406E1,9.144135E2,3.7933423E3,9.3662933E2,3.3004083E2,1.8849693E2,1.3826682E2,1.5584538E0,8.361177E2,1.4736122E4,1.0717689E1,2.269637E1,1.0729875E1,9.036836E2,8.68488E2,2.9248542E3,8.584901E2,7.813927E1,1.9490353E2,1.351373E2,3.7143245E0,1.8478261E2,1.2965117E2,8.615635E0,8.344903E2,1.627342E0,1.0998307E4,3.737816E3,1.5556569E0,9.162032E0,2.1373348E1,1.3230202E0,2.6252534E0,8.104621E0,7.999578E1,8.2368787E2,1.7653484E0,8.6672266E2,1.21213585E2,2.8036406E3,1.7256355E1,8.412337E2,4.848923E1,2.9650036E1,1.923629E2,2.54064E0,7.6214836E1,5.8922462E1,2.1396203E0,1.5747043E0,3.426254E1,1.5052007E2,1.1326054E1,1.1832512E2,7.148878E0,1.466757E0,7.944691E2,4.002123E1,1.0728974E4,2.6933237E2,2.9770126E2,3.4401147E3,3.4562123E0,5.7058196E0,1.3244431E0,2.0048906E1,3.4363034E0,4.668318E0,6.148135E1,1.8514431E1,6.263617E2,1.9732614E2,8.6506647E2,1.6561713E0,3.6395154E0,1.17574066E2,3.6837024E2,2.4352705E3,1.9068266E0,1.5349529E1,5.973045E1,7.815033E2,4.5538834E1,2.9503963E0,1.1072754E0,2.854276E1,1.8899348E2,3.3694181E0,1.4653094E0,1.0753307E0,1.1137394E1,6.5077446E1,1.6139984E1,4.2782482E1,1.124671E0,1.0149493E0,9.399061E0,2.4863478E1,1.4054936E0,1.4911458E2],"tree_param":{"num_deleted":"0","num_feature":"5","num_nodes":"109","size_leaf_vector":"1"}},{"base_weights":[2.7621895E-2,1.2262666E-2,1.23412415E-1,8.663296E-3,1.6450508E-1,7.389437E-2,7.7533793E-1,5.5773213E-5,4.2936035E-2,1.1489704E-1,7.2526354E-1,5.149144E-2,2.6315996E-1,5.341869E-1,9.621895E-1,-5.9531466E-3,6.0535576E-2,2.1039255E-2,1.7361206E-1,3.388719E-1,-1.9678362E-2,8.0701673E-1,2.4489757E-1,1.3639453E-1,2.8374031E-2,1.1137306E-1,4.8200086E-1,2.1261506E-1,8.5649145E-1,9.7034234E-1,1.1237653E-2,-3.7329536E-2,5.8878437E-3,1.1143171E-1,-6.067514E-2,-7.254266E-3,7.6560035E-2,1.2375619E-1,3.3205345E-1,2.4990514E-1,7.738348E-1,-8.232549E-1,3.5572726E-2,1.5174865E-2,8.3441204E-1,-3.9203724E-1,2.2740974E-1,2.6622577E-2,2.4549596E-1,-2.613955E-1,4.5074675E-2,-3.736442E-1,1.6760917E-1,3.5468546E-1,6.606936E-1,-8.035818E-1,3.068477E-1,9.2688704E-1,4.9566868E-1,6.110438E-1,2.958938E-1,3.9474286E-2,-1.6587943E-2,6.093898E-2,5.435949E-4,4.9196053E-2,-2.2606757E-2,-5.1331878E-2,6.897772E-2,2.9380025E-2,-1.31114805E-2,3.5426825E-2,-4.1633915E-2,4.4853166E-2,-1.317289E-1,3.7402983E-3,1.3215184E-1,8.87207E-2,-3.6050957E-1,2.730427E-1,6.7630164E-2,-1.0448464E-2,-6.0715324E-1,-6.844402E-3,1.5395628E-1,7.0931256E-2,2.5832766E-1,-3.639086E-1,1.7264667E-1,-4.0210884E-2,6.369533E-2,1.6263448E-1,6.62078E-2,-1.4994346E-1,5.43498E-2,-3.996451E-2,2.0177761E-2,1.1860616E-1,-5.2354413E-1,1.24649845E-1,2.6536584E-2,-1.3199966E-1,1.1904604E-1,1.00819826E-1,2.4586788E-1,8.241448E-2,-4.7821245E-1,1.0748007E-1,-2.9173735E-1,2.8534856E-1,5.0629813E-2,-8.406961E-2,2.2347192E-1,2.5334084E-1,-7.866831E-2],"categories":[],"categories_nodes":[],"categories_segments":[],"categories_sizes":[],"default_left":[0,0,0,0,0,0,0,0,0,0,0,0,0,0,0,0,0,0,0,0,0,0,0,0,0,0,0,0,0,0,0,0,0,0,0,0,0,0,0,0,0,0,0,0,0,0,0,0,0,0,0,0,0,0,0,0,0,0,0,0,0,0,0,0,0,0,0,0,0,0,0,0,0,0,0,0,0,0,0,0,0,0,0,0,0,0,0,0,0,0,0,0,0,0,0,0,0,0,0,0,0,0,0,0,0,0,0,0,0,0,0,0,0,0,0],"id":12,"left_children":[1,3,5,7,9,11,13,15,17,19,21,23,25,27,29,31,33,35,37,39,41,43,45,47,49,51,53,55,57,59,-1,61,63,65,67,69,71,73,75,77,79,81,83,-1,85,87,-1,89,91,93,95,97,99,101,103,105,107,109,111,113,-1,-1,-1,-1,-1,-1,-1,-1,-1,-1,-1,-1,-1,-1,-1,-1,-1,-1,-1,-1,-1,-1,-1,-1,-1,-1,-1,-1,-1,-1,-1,-1,-1,-1,-1,-1,-1,-1,-1,-1,-1,-1,-1,-1,-1,-1,-1,-1,-1,-1,-1,-1,-1,-1,-1],"loss_changes":[3.1905193E1,1.0240747E1,9.668055E1,5.3868327E0,1.1923944E1,1.1800232E1,9.013435E0,5.3047414E0,1.0484606E1,1.1995201E1,1.1726704E0,4.888365E0,9.733677E0,9.618082E0,8.524246E-1,4.9332194E0,8.145021E0,4.933953E0,4.113241E0,5.585663E0,1.1102336E1,5.6668663E-1,2.4250107E0,6.378826E0,9.498756E0,4.843418E0,2.5041046E0,4.9064054E0,7.3169327E-1,6.7596436E-2,0E0,1.1045927E1,7.750002E0,9.136172E0,1.257944E1,7.984263E0,9.498116E0,5.887676E0,4.336834E0,8.701828E0,1.6547813E0,1.5156338E1,6.5459886E0,0E0,2.4776459E-1,3.5290265E0,0E0,7.9907007E0,1.8467636E0,1.1377932E1,7.3436604E0,2.0223755E1,3.0586739E0,2.6004496E0,2.2475376E0,4.1932483E0,3.3253918E0,5.404396E-1,2.1048408E0,1.7705593E0,0E0,0E0,0E0,0E0,0E0,0E0,0E0,0E0,0E0,0E0,0E0,0E0,0E0,0E0,0E0,0E0,0E0,0E0,0E0,0E0,0E0,0E0,0E0,0E0,0E0,0E0,0E0,0E0,0E0,0E0,0E0,0E0,0E0,0E0,0E0,0E0,0E0,0E0,0E0,0E0,0E0,0E0,0E0,0E0,0E0,0E0,0E0,0E0,0E0,0E0,0E0,0E0,0E0,0E0,0E0],"parents":[2147483647,0,0,1,1,2,2,3,3,4,4,5,5,6,6,7,7,8,8,9,9,10,10,11,11,12,12,13,13,14,14,15,15,16,16,17,17,18,18,19,19,20,20,21,21,22,22,23,23,24,24,25,25,26,26,27,27,28,28,29,29,31,31,32,32,33,33,34,34,35,35,36,36,37,37,38,38,39,39,40,40,41,41,42,42,44,44,45,45,47,47,48,48,49,49,50,50,51,51,52,52,53,53,54,54,55,55,56,56,57,57,58,58,59,59],"right_children":[2,4,6,8,10,12,14,16,18,20,22,24,26,28,30,32,34,36,38,40,42,44,46,48,50,52,54,56,58,60,-1,62,64,66,68,70,72,74,76,78,80,82,84,-1,86,88,-1,90,92,94,96,98,100,102,104,106,108,110,112,114,-1,-1,-1,-1,-1,-1,-1,-1,-1,-1,-1,-1,-1,-1,-1,-1,-1,-1,-1,-1,-1,-1,-1,-1,-1,-1,-1,-1,-1,-1,-1,-1,-1,-1,-1,-1,-1,-1,-1,-1,-1,-1,-1,-1,-1,-1,-1,-1,-1,-1,-1,-1,-1,-1,-1],"split_conditions":[1.4626169E2,9.56816E-1,7.023858E-1,6.788417E-1,1.1042416E2,5.479077E-1,8.008951E-1,2.7282117E2,1.0414037E2,2.7482084E1,4.3535323E0,1.017817E0,1.6966153E2,1.6269666E2,4.960573E0,3.3881886E1,2.9151917E2,4.277473E1,8.6382943E-1,2.4794737E1,6.545243E0,8.285414E0,4.6680713E0,4.884506E-1,1.253534E0,4.1016135E-1,1.8209073E2,1.294047E1,4.1168575E0,1.4857468E2,1.1237653E-2,1.4482073E1,3.5461464E1,3.8219295E0,3.7415998E0,7.655055E1,5.6992798E1,8.5187507E-1,6.9569855E1,2.4240007E1,7.600191E1,1.9857654E2,5.7387047E1,1.5174865E-2,1.11901344E2,9.72464E-1,2.2740974E-1,1.7163284E2,2.3747005E-2,1.7966432E2,4.269507E-2,2.9727358E-1,7.321232E1,2.7826098E-1,5.860537E-1,8.7249466E1,5.8585133E1,2.903111E2,7.2213566E-1,4.333897E0,2.958938E-1,3.9474286E-2,-1.6587943E-2,6.093898E-2,5.435949E-4,4.9196053E-2,-2.2606757E-2,-5.1331878E-2,6.897772E-2,2.9380025E-2,-1.31114805E-2,3.5426825E-2,-4.1633915E-2,4.4853166E-2,-1.317289E-1,3.7402983E-3,1.3215184E-1,8.87207E-2,-3.6050957E-1,2.730427E-1,6.7630164E-2,-1.0448464E-2,-6.0715324E-1,-6.844402E-3,1.5395628E-1,7.0931256E-2,2.5832766E-1,-3.639086E-1,1.7264667E-1,-4.0210884E-2,6.369533E-2,1.6263448E-1,6.62078E-2,-1.4994346E-1,5.43498E-2,-3.996451E-2,2.0177761E-2,1.1860616E-1,-5.2354413E-1,1.24649845E-1,2.6536584E-2,-1.3199966E-1,1.1904604E-1,1.00819826E-1,2.4586788E-1,8.241448E-2,-4.7821245E-1,1.0748007E-1,-2.9173735E-1,2.8534856E-1,5.0629813E-2,-8.406961E-2,2.2347192E-1,2.5334084E-1,-7.866831E-2],"split_indices":[1,4,4,4,1,4,4,3,1,0,2,2,1,1,2,1,3,0,4,0,1,3,2,2,2,2,1,0,2,1,0,0,1,2,2,3,0,4,3,0,1,3,0,0,1,4,0,3,4,1,4,2,3,2,4,3,0,3,4,2,0,0,0,0,0,0,0,0,0,0,0,0,0,0,0,0,0,0,0,0,0,0,0,0,0,0,0,0,0,0,0,0,0,0,0,0,0,0,0,0,0,0,0,0,0,0,0,0,0,0,0,0,0,0,0],"split_type":[0,0,0,0,0,0,0,0,0,0,0,0,0,0,0,0,0,0,0,0,0,0,0,0,0,0,0,0,0,0,0,0,0,0,0,0,0,0,0,0,0,0,0,0,0,0,0,0,0,0,0,0,0,0,0,0,0,0,0,0,0,0,0,0,0,0,0,0,0,0,0,0,0,0,0,0,0,0,0,0,0,0,0,0,0,0,0,0,0,0,0,0,0,0,0,0,0,0,0,0,0,0,0,0,0,0,0,0,0,0,0,0,0,0,0],"sum_hessian":[2.1685527E4,1.8689885E4,2.9956426E3,1.825925E4,4.306349E2,2.7852017E3,2.1044109E2,1.45948E4,3.6644502E3,3.9674164E2,3.3893238E1,2.4915542E3,2.9364743E2,9.355615E1,1.1688493E2,1.3276615E4,1.3181853E3,3.139534E3,5.2491626E2,1.4834007E2,2.4840157E2,2.8382786E1,5.510453E0,5.321675E2,1.9593867E3,1.7427802E2,1.1936941E2,4.7662094E1,4.5894062E1,1.1581453E2,1.0704027E0,3.637027E3,9.639588E3,9.2842303E2,3.8976224E2,2.0802852E3,1.0592488E3,4.0063254E2,1.2428371E2,1.2445811E2,2.388196E1,1.5086208E1,2.3331537E2,1.0914795E0,2.7291307E1,2.5639343E0,2.946519E0,2.6588867E2,2.6627878E2,1.0597548E2,1.8534113E3,1.7521017E1,1.56757E2,7.14485E1,4.7920906E1,3.4058673E0,4.4256226E1,3.7089233E1,8.80483E0,6.5995207E0,1.0921501E2,3.4900775E2,3.2880193E3,1.9417325E2,9.445414E3,7.246542E2,2.0376886E2,2.8273242E2,1.0702983E2,5.3492786E2,1.5453572E3,8.883731E2,1.708757E2,3.838052E2,1.6827343E1,3.1772427E1,9.251128E1,1.2142084E2,3.037268E0,1.8599373E1,5.2825856E0,9.727301E0,5.358908E0,2.0874854E2,2.456683E1,1.5868816E0,2.5704426E1,1.2497339E0,1.3142005E0,1.4270341E2,1.2318526E2,1.8938593E1,2.473402E2,6.87885E1,3.7186977E1,2.0454506E2,1.6488662E3,1.168244E1,5.8385763E0,3.691116E1,1.1984584E2,3.1220565E0,6.832645E1,1.6769476E1,3.1151428E1,1.7166206E0,1.6892467E0,4.32383E1,